digraph Tree {
node [shape=box] ;
0 [label="X[16] <= 7364.0\ngini = 0.1164\nsamples = 199523\nvalue = [187141, 12382]"] ;
1 [label="X[39] <= 47.5\ngini = 0.1001\nsamples = 196788\nvalue = [186386, 10402]"] ;
0 -> 1 [labeldistance=2.5, labelangle=45, headlabel="True"] ;
2 [label="X[18] <= 12689.5\ngini = 0.0194\nsamples = 123316\nvalue = [122109, 1207]"] ;
1 -> 2 ;
3 [label="X[18] <= 87.5\ngini = 0.0174\nsamples = 123051\nvalue = [121970, 1081]"] ;
2 -> 3 ;
4 [label="X[17] <= 1881.5\ngini = 0.0118\nsamples = 116661\nvalue = [115971, 690]"] ;
3 -> 4 ;
5 [label="X[39] <= 23.5\ngini = 0.0109\nsamples = 116284\nvalue = [115649, 635]"] ;
4 -> 5 ;
6 [label="X[16] <= 5826.5\ngini = 0.0056\nsamples = 101695\nvalue = [101410, 285]"] ;
5 -> 6 ;
7 [label="X[19] <= 0.5\ngini = 0.0054\nsamples = 101623\nvalue = [101350, 273]"] ;
6 -> 7 ;
8 [label="X[0] <= 20.5\ngini = 0.0008\nsamples = 73989\nvalue = [73958, 31]"] ;
7 -> 8 ;
9 [label="gini = 0.0\nsamples = 56408\nvalue = [56408, 0]"] ;
8 -> 9 ;
10 [label="X[39] <= 8.5\ngini = 0.0035\nsamples = 17581\nvalue = [17550, 31]"] ;
8 -> 10 ;
11 [label="X[34] <= 40.5\ngini = 0.0032\nsamples = 17313\nvalue = [17285, 28]"] ;
10 -> 11 ;
12 [label="X[12] <= 0.5\ngini = 0.0031\nsamples = 17269\nvalue = [17242, 27]"] ;
11 -> 12 ;
13 [label="X[1] <= 6.5\ngini = 0.0016\nsamples = 11360\nvalue = [11351, 9]"] ;
12 -> 13 ;
14 [label="X[26] <= 7.5\ngini = 0.0014\nsamples = 11311\nvalue = [11303, 8]"] ;
13 -> 14 ;
15 [label="X[24] <= 433.79\ngini = 0.0012\nsamples = 11258\nvalue = [11251, 7]"] ;
14 -> 15 ;
16 [label="X[24] <= 433.26\ngini = 0.0075\nsamples = 530\nvalue = [528, 2]"] ;
15 -> 16 ;
17 [label="X[0] <= 37.5\ngini = 0.0038\nsamples = 529\nvalue = [528, 1]"] ;
16 -> 17 ;
18 [label="X[0] <= 36.5\ngini = 0.0167\nsamples = 119\nvalue = [118, 1]"] ;
17 -> 18 ;
19 [label="gini = 0.0\nsamples = 108\nvalue = [108, 0]"] ;
18 -> 19 ;
20 [label="X[24] <= 367.42\ngini = 0.1653\nsamples = 11\nvalue = [10, 1]"] ;
18 -> 20 ;
21 [label="gini = 0.0\nsamples = 8\nvalue = [8, 0]"] ;
20 -> 21 ;
22 [label="X[22] <= 4.0\ngini = 0.4444\nsamples = 3\nvalue = [2, 1]"] ;
20 -> 22 ;
23 [label="gini = 0.0\nsamples = 2\nvalue = [2, 0]"] ;
22 -> 23 ;
24 [label="gini = 0.0\nsamples = 1\nvalue = [0, 1]"] ;
22 -> 24 ;
25 [label="gini = 0.0\nsamples = 410\nvalue = [410, 0]"] ;
17 -> 25 ;
26 [label="gini = 0.0\nsamples = 1\nvalue = [0, 1]"] ;
16 -> 26 ;
27 [label="X[24] <= 3865.425\ngini = 0.0009\nsamples = 10728\nvalue = [10723, 5]"] ;
15 -> 27 ;
28 [label="X[0] <= 87.5\ngini = 0.0008\nsamples = 10459\nvalue = [10455, 4]"] ;
27 -> 28 ;
29 [label="X[22] <= 1.5\ngini = 0.0006\nsamples = 10036\nvalue = [10033, 3]"] ;
28 -> 29 ;
30 [label="X[4] <= 3.0\ngini = 0.0017\nsamples = 3583\nvalue = [3580, 3]"] ;
29 -> 30 ;
31 [label="gini = 0.0\nsamples = 1842\nvalue = [1842, 0]"] ;
30 -> 31 ;
32 [label="X[4] <= 4.5\ngini = 0.0034\nsamples = 1741\nvalue = [1738, 3]"] ;
30 -> 32 ;
33 [label="X[28] <= 1.5\ngini = 0.047\nsamples = 83\nvalue = [81, 2]"] ;
32 -> 33 ;
34 [label="gini = 0.0\nsamples = 49\nvalue = [49, 0]"] ;
33 -> 34 ;
35 [label="X[0] <= 47.5\ngini = 0.1107\nsamples = 34\nvalue = [32, 2]"] ;
33 -> 35 ;
36 [label="X[0] <= 46.0\ngini = 0.2778\nsamples = 12\nvalue = [10, 2]"] ;
35 -> 36 ;
37 [label="X[24] <= 2134.9751\ngini = 0.1653\nsamples = 11\nvalue = [10, 1]"] ;
36 -> 37 ;
38 [label="gini = 0.0\nsamples = 7\nvalue = [7, 0]"] ;
37 -> 38 ;
39 [label="X[24] <= 2463.085\ngini = 0.375\nsamples = 4\nvalue = [3, 1]"] ;
37 -> 39 ;
40 [label="gini = 0.0\nsamples = 1\nvalue = [0, 1]"] ;
39 -> 40 ;
41 [label="gini = 0.0\nsamples = 3\nvalue = [3, 0]"] ;
39 -> 41 ;
42 [label="gini = 0.0\nsamples = 1\nvalue = [0, 1]"] ;
36 -> 42 ;
43 [label="gini = 0.0\nsamples = 22\nvalue = [22, 0]"] ;
35 -> 43 ;
44 [label="X[23] <= 0.5\ngini = 0.0012\nsamples = 1658\nvalue = [1657, 1]"] ;
32 -> 44 ;
45 [label="X[7] <= 0.5\ngini = 0.0047\nsamples = 422\nvalue = [421, 1]"] ;
44 -> 45 ;
46 [label="gini = 0.0\nsamples = 324\nvalue = [324, 0]"] ;
45 -> 46 ;
47 [label="X[32] <= 1.0\ngini = 0.0202\nsamples = 98\nvalue = [97, 1]"] ;
45 -> 47 ;
48 [label="X[4] <= 8.5\ngini = 0.0689\nsamples = 28\nvalue = [27, 1]"] ;
47 -> 48 ;
49 [label="X[0] <= 69.5\ngini = 0.1975\nsamples = 9\nvalue = [8, 1]"] ;
48 -> 49 ;
50 [label="X[24] <= 1267.62\ngini = 0.375\nsamples = 4\nvalue = [3, 1]"] ;
49 -> 50 ;
51 [label="gini = 0.0\nsamples = 2\nvalue = [2, 0]"] ;
50 -> 51 ;
52 [label="X[24] <= 1678.2749\ngini = 0.5\nsamples = 2\nvalue = [1, 1]"] ;
50 -> 52 ;
53 [label="gini = 0.0\nsamples = 1\nvalue = [0, 1]"] ;
52 -> 53 ;
54 [label="gini = 0.0\nsamples = 1\nvalue = [1, 0]"] ;
52 -> 54 ;
55 [label="gini = 0.0\nsamples = 5\nvalue = [5, 0]"] ;
49 -> 55 ;
56 [label="gini = 0.0\nsamples = 19\nvalue = [19, 0]"] ;
48 -> 56 ;
57 [label="gini = 0.0\nsamples = 70\nvalue = [70, 0]"] ;
47 -> 57 ;
58 [label="gini = 0.0\nsamples = 1236\nvalue = [1236, 0]"] ;
44 -> 58 ;
59 [label="gini = 0.0\nsamples = 6453\nvalue = [6453, 0]"] ;
29 -> 59 ;
60 [label="X[10] <= 2.0\ngini = 0.0047\nsamples = 423\nvalue = [422, 1]"] ;
28 -> 60 ;
61 [label="gini = 0.0\nsamples = 366\nvalue = [366, 0]"] ;
60 -> 61 ;
62 [label="X[0] <= 88.5\ngini = 0.0345\nsamples = 57\nvalue = [56, 1]"] ;
60 -> 62 ;
63 [label="X[24] <= 2125.0701\ngini = 0.2449\nsamples = 7\nvalue = [6, 1]"] ;
62 -> 63 ;
64 [label="gini = 0.0\nsamples = 6\nvalue = [6, 0]"] ;
63 -> 64 ;
65 [label="gini = 0.0\nsamples = 1\nvalue = [0, 1]"] ;
63 -> 65 ;
66 [label="gini = 0.0\nsamples = 50\nvalue = [50, 0]"] ;
62 -> 66 ;
67 [label="X[24] <= 3867.6899\ngini = 0.0074\nsamples = 269\nvalue = [268, 1]"] ;
27 -> 67 ;
68 [label="gini = 0.0\nsamples = 1\nvalue = [0, 1]"] ;
67 -> 68 ;
69 [label="gini = 0.0\nsamples = 268\nvalue = [268, 0]"] ;
67 -> 69 ;
70 [label="X[24] <= 3742.2148\ngini = 0.037\nsamples = 53\nvalue = [52, 1]"] ;
14 -> 70 ;
71 [label="gini = 0.0\nsamples = 51\nvalue = [51, 0]"] ;
70 -> 71 ;
72 [label="X[0] <= 51.5\ngini = 0.5\nsamples = 2\nvalue = [1, 1]"] ;
70 -> 72 ;
73 [label="gini = 0.0\nsamples = 1\nvalue = [0, 1]"] ;
72 -> 73 ;
74 [label="gini = 0.0\nsamples = 1\nvalue = [1, 0]"] ;
72 -> 74 ;
75 [label="X[24] <= 706.085\ngini = 0.04\nsamples = 49\nvalue = [48, 1]"] ;
13 -> 75 ;
76 [label="X[24] <= 635.555\ngini = 0.375\nsamples = 4\nvalue = [3, 1]"] ;
75 -> 76 ;
77 [label="gini = 0.0\nsamples = 3\nvalue = [3, 0]"] ;
76 -> 77 ;
78 [label="gini = 0.0\nsamples = 1\nvalue = [0, 1]"] ;
76 -> 78 ;
79 [label="gini = 0.0\nsamples = 45\nvalue = [45, 0]"] ;
75 -> 79 ;
80 [label="X[38] <= 1.5\ngini = 0.0061\nsamples = 5909\nvalue = [5891, 18]"] ;
12 -> 80 ;
81 [label="X[23] <= 3.0\ngini = 0.0226\nsamples = 350\nvalue = [346, 4]"] ;
80 -> 81 ;
82 [label="X[24] <= 1239.895\ngini = 0.0128\nsamples = 310\nvalue = [308, 2]"] ;
81 -> 82 ;
83 [label="X[24] <= 1229.655\ngini = 0.0396\nsamples = 99\nvalue = [97, 2]"] ;
82 -> 83 ;
84 [label="X[24] <= 587.77\ngini = 0.0202\nsamples = 98\nvalue = [97, 1]"] ;
83 -> 84 ;
85 [label="X[24] <= 563.98\ngini = 0.0588\nsamples = 33\nvalue = [32, 1]"] ;
84 -> 85 ;
86 [label="gini = 0.0\nsamples = 32\nvalue = [32, 0]"] ;
85 -> 86 ;
87 [label="gini = 0.0\nsamples = 1\nvalue = [0, 1]"] ;
85 -> 87 ;
88 [label="gini = 0.0\nsamples = 65\nvalue = [65, 0]"] ;
84 -> 88 ;
89 [label="gini = 0.0\nsamples = 1\nvalue = [0, 1]"] ;
83 -> 89 ;
90 [label="gini = 0.0\nsamples = 211\nvalue = [211, 0]"] ;
82 -> 90 ;
91 [label="X[0] <= 40.5\ngini = 0.095\nsamples = 40\nvalue = [38, 2]"] ;
81 -> 91 ;
92 [label="X[4] <= 4.0\ngini = 0.4444\nsamples = 3\nvalue = [2, 1]"] ;
91 -> 92 ;
93 [label="gini = 0.0\nsamples = 1\nvalue = [0, 1]"] ;
92 -> 93 ;
94 [label="gini = 0.0\nsamples = 2\nvalue = [2, 0]"] ;
92 -> 94 ;
95 [label="X[0] <= 71.0\ngini = 0.0526\nsamples = 37\nvalue = [36, 1]"] ;
91 -> 95 ;
96 [label="gini = 0.0\nsamples = 27\nvalue = [27, 0]"] ;
95 -> 96 ;
97 [label="X[0] <= 72.5\ngini = 0.18\nsamples = 10\nvalue = [9, 1]"] ;
95 -> 97 ;
98 [label="X[7] <= 2.5\ngini = 0.5\nsamples = 2\nvalue = [1, 1]"] ;
97 -> 98 ;
99 [label="gini = 0.0\nsamples = 1\nvalue = [1, 0]"] ;
98 -> 99 ;
100 [label="gini = 0.0\nsamples = 1\nvalue = [0, 1]"] ;
98 -> 100 ;
101 [label="gini = 0.0\nsamples = 8\nvalue = [8, 0]"] ;
97 -> 101 ;
102 [label="X[20] <= 4.5\ngini = 0.005\nsamples = 5559\nvalue = [5545, 14]"] ;
80 -> 102 ;
103 [label="X[3] <= 43.5\ngini = 0.0047\nsamples = 5511\nvalue = [5498, 13]"] ;
102 -> 103 ;
104 [label="X[24] <= 1729.78\ngini = 0.0044\nsamples = 5461\nvalue = [5449, 12]"] ;
103 -> 104 ;
105 [label="X[24] <= 1729.7151\ngini = 0.007\nsamples = 2837\nvalue = [2827, 10]"] ;
104 -> 105 ;
106 [label="X[30] <= 3.5\ngini = 0.0063\nsamples = 2836\nvalue = [2827, 9]"] ;
105 -> 106 ;
107 [label="X[23] <= 4.5\ngini = 0.0057\nsamples = 2797\nvalue = [2789, 8]"] ;
106 -> 107 ;
108 [label="X[7] <= 4.5\ngini = 0.0045\nsamples = 2650\nvalue = [2644, 6]"] ;
107 -> 108 ;
109 [label="X[22] <= 1.5\ngini = 0.0038\nsamples = 2602\nvalue = [2597, 5]"] ;
108 -> 109 ;
110 [label="X[28] <= 1.5\ngini = 0.0076\nsamples = 1315\nvalue = [1310, 5]"] ;
109 -> 110 ;
111 [label="X[0] <= 36.5\ngini = 0.0028\nsamples = 717\nvalue = [716, 1]"] ;
110 -> 111 ;
112 [label="X[0] <= 35.5\ngini = 0.0267\nsamples = 74\nvalue = [73, 1]"] ;
111 -> 112 ;
113 [label="gini = 0.0\nsamples = 69\nvalue = [69, 0]"] ;
112 -> 113 ;
114 [label="X[24] <= 1174.3\ngini = 0.32\nsamples = 5\nvalue = [4, 1]"] ;
112 -> 114 ;
115 [label="gini = 0.0\nsamples = 4\nvalue = [4, 0]"] ;
114 -> 115 ;
116 [label="gini = 0.0\nsamples = 1\nvalue = [0, 1]"] ;
114 -> 116 ;
117 [label="gini = 0.0\nsamples = 643\nvalue = [643, 0]"] ;
111 -> 117 ;
118 [label="X[33] <= 19.5\ngini = 0.0133\nsamples = 598\nvalue = [594, 4]"] ;
110 -> 118 ;
119 [label="X[7] <= 0.5\ngini = 0.0105\nsamples = 570\nvalue = [567, 3]"] ;
118 -> 119 ;
120 [label="X[0] <= 63.0\ngini = 0.0465\nsamples = 42\nvalue = [41, 1]"] ;
119 -> 120 ;
121 [label="X[0] <= 60.5\ngini = 0.2778\nsamples = 6\nvalue = [5, 1]"] ;
120 -> 121 ;
122 [label="gini = 0.0\nsamples = 5\nvalue = [5, 0]"] ;
121 -> 122 ;
123 [label="gini = 0.0\nsamples = 1\nvalue = [0, 1]"] ;
121 -> 123 ;
124 [label="gini = 0.0\nsamples = 36\nvalue = [36, 0]"] ;
120 -> 124 ;
125 [label="X[24] <= 1102.855\ngini = 0.0075\nsamples = 528\nvalue = [526, 2]"] ;
119 -> 125 ;
126 [label="X[24] <= 1101.115\ngini = 0.0144\nsamples = 276\nvalue = [274, 2]"] ;
125 -> 126 ;
127 [label="X[0] <= 55.0\ngini = 0.0072\nsamples = 275\nvalue = [274, 1]"] ;
126 -> 127 ;
128 [label="X[0] <= 53.5\ngini = 0.0317\nsamples = 62\nvalue = [61, 1]"] ;
127 -> 128 ;
129 [label="gini = 0.0\nsamples = 60\nvalue = [60, 0]"] ;
128 -> 129 ;
130 [label="X[4] <= 6.0\ngini = 0.5\nsamples = 2\nvalue = [1, 1]"] ;
128 -> 130 ;
131 [label="gini = 0.0\nsamples = 1\nvalue = [1, 0]"] ;
130 -> 131 ;
132 [label="gini = 0.0\nsamples = 1\nvalue = [0, 1]"] ;
130 -> 132 ;
133 [label="gini = 0.0\nsamples = 213\nvalue = [213, 0]"] ;
127 -> 133 ;
134 [label="gini = 0.0\nsamples = 1\nvalue = [0, 1]"] ;
126 -> 134 ;
135 [label="gini = 0.0\nsamples = 252\nvalue = [252, 0]"] ;
125 -> 135 ;
136 [label="X[4] <= 13.5\ngini = 0.0689\nsamples = 28\nvalue = [27, 1]"] ;
118 -> 136 ;
137 [label="gini = 0.0\nsamples = 27\nvalue = [27, 0]"] ;
136 -> 137 ;
138 [label="gini = 0.0\nsamples = 1\nvalue = [0, 1]"] ;
136 -> 138 ;
139 [label="gini = 0.0\nsamples = 1287\nvalue = [1287, 0]"] ;
109 -> 139 ;
140 [label="X[4] <= 0.5\ngini = 0.0408\nsamples = 48\nvalue = [47, 1]"] ;
108 -> 140 ;
141 [label="X[24] <= 1342.5901\ngini = 0.18\nsamples = 10\nvalue = [9, 1]"] ;
140 -> 141 ;
142 [label="gini = 0.0\nsamples = 8\nvalue = [8, 0]"] ;
141 -> 142 ;
143 [label="X[24] <= 1483.755\ngini = 0.5\nsamples = 2\nvalue = [1, 1]"] ;
141 -> 143 ;
144 [label="gini = 0.0\nsamples = 1\nvalue = [0, 1]"] ;
143 -> 144 ;
145 [label="gini = 0.0\nsamples = 1\nvalue = [1, 0]"] ;
143 -> 145 ;
146 [label="gini = 0.0\nsamples = 38\nvalue = [38, 0]"] ;
140 -> 146 ;
147 [label="X[34] <= 20.5\ngini = 0.0268\nsamples = 147\nvalue = [145, 2]"] ;
107 -> 147 ;
148 [label="X[11] <= 4.5\ngini = 0.0141\nsamples = 141\nvalue = [140, 1]"] ;
147 -> 148 ;
149 [label="gini = 0.0\nsamples = 129\nvalue = [129, 0]"] ;
148 -> 149 ;
150 [label="X[24] <= 1580.23\ngini = 0.1528\nsamples = 12\nvalue = [11, 1]"] ;
148 -> 150 ;
151 [label="gini = 0.0\nsamples = 10\nvalue = [10, 0]"] ;
150 -> 151 ;
152 [label="X[15] <= 0.5\ngini = 0.5\nsamples = 2\nvalue = [1, 1]"] ;
150 -> 152 ;
153 [label="gini = 0.0\nsamples = 1\nvalue = [1, 0]"] ;
152 -> 153 ;
154 [label="gini = 0.0\nsamples = 1\nvalue = [0, 1]"] ;
152 -> 154 ;
155 [label="X[34] <= 22.5\ngini = 0.2778\nsamples = 6\nvalue = [5, 1]"] ;
147 -> 155 ;
156 [label="X[0] <= 28.5\ngini = 0.5\nsamples = 2\nvalue = [1, 1]"] ;
155 -> 156 ;
157 [label="gini = 0.0\nsamples = 1\nvalue = [0, 1]"] ;
156 -> 157 ;
158 [label="gini = 0.0\nsamples = 1\nvalue = [1, 0]"] ;
156 -> 158 ;
159 [label="gini = 0.0\nsamples = 4\nvalue = [4, 0]"] ;
155 -> 159 ;
160 [label="X[6] <= 1.5\ngini = 0.05\nsamples = 39\nvalue = [38, 1]"] ;
106 -> 160 ;
161 [label="gini = 0.0\nsamples = 32\nvalue = [32, 0]"] ;
160 -> 161 ;
162 [label="X[4] <= 4.5\ngini = 0.2449\nsamples = 7\nvalue = [6, 1]"] ;
160 -> 162 ;
163 [label="gini = 0.0\nsamples = 6\nvalue = [6, 0]"] ;
162 -> 163 ;
164 [label="gini = 0.0\nsamples = 1\nvalue = [0, 1]"] ;
162 -> 164 ;
165 [label="gini = 0.0\nsamples = 1\nvalue = [0, 1]"] ;
105 -> 165 ;
166 [label="X[24] <= 3039.1401\ngini = 0.0015\nsamples = 2624\nvalue = [2622, 2]"] ;
104 -> 166 ;
167 [label="gini = 0.0\nsamples = 1879\nvalue = [1879, 0]"] ;
166 -> 167 ;
168 [label="X[24] <= 3039.8052\ngini = 0.0054\nsamples = 745\nvalue = [743, 2]"] ;
166 -> 168 ;
169 [label="gini = 0.0\nsamples = 1\nvalue = [0, 1]"] ;
168 -> 169 ;
170 [label="X[0] <= 78.5\ngini = 0.0027\nsamples = 744\nvalue = [743, 1]"] ;
168 -> 170 ;
171 [label="gini = 0.0\nsamples = 691\nvalue = [691, 0]"] ;
170 -> 171 ;
172 [label="X[0] <= 79.5\ngini = 0.037\nsamples = 53\nvalue = [52, 1]"] ;
170 -> 172 ;
173 [label="X[4] <= 6.0\ngini = 0.2449\nsamples = 7\nvalue = [6, 1]"] ;
172 -> 173 ;
174 [label="X[22] <= 2.5\ngini = 0.4444\nsamples = 3\nvalue = [2, 1]"] ;
173 -> 174 ;
175 [label="gini = 0.0\nsamples = 1\nvalue = [0, 1]"] ;
174 -> 175 ;
176 [label="gini = 0.0\nsamples = 2\nvalue = [2, 0]"] ;
174 -> 176 ;
177 [label="gini = 0.0\nsamples = 4\nvalue = [4, 0]"] ;
173 -> 177 ;
178 [label="gini = 0.0\nsamples = 46\nvalue = [46, 0]"] ;
172 -> 178 ;
179 [label="X[25] <= 2.5\ngini = 0.0392\nsamples = 50\nvalue = [49, 1]"] ;
103 -> 179 ;
180 [label="gini = 0.0\nsamples = 48\nvalue = [48, 0]"] ;
179 -> 180 ;
181 [label="X[1] <= 1.5\ngini = 0.5\nsamples = 2\nvalue = [1, 1]"] ;
179 -> 181 ;
182 [label="gini = 0.0\nsamples = 1\nvalue = [0, 1]"] ;
181 -> 182 ;
183 [label="gini = 0.0\nsamples = 1\nvalue = [1, 0]"] ;
181 -> 183 ;
184 [label="X[10] <= 2.0\ngini = 0.0408\nsamples = 48\nvalue = [47, 1]"] ;
102 -> 184 ;
185 [label="gini = 0.0\nsamples = 44\nvalue = [44, 0]"] ;
184 -> 185 ;
186 [label="X[10] <= 3.5\ngini = 0.375\nsamples = 4\nvalue = [3, 1]"] ;
184 -> 186 ;
187 [label="gini = 0.0\nsamples = 1\nvalue = [0, 1]"] ;
186 -> 187 ;
188 [label="gini = 0.0\nsamples = 3\nvalue = [3, 0]"] ;
186 -> 188 ;
189 [label="X[7] <= 0.5\ngini = 0.0444\nsamples = 44\nvalue = [43, 1]"] ;
11 -> 189 ;
190 [label="X[4] <= 10.0\ngini = 0.2778\nsamples = 6\nvalue = [5, 1]"] ;
189 -> 190 ;
191 [label="gini = 0.0\nsamples = 5\nvalue = [5, 0]"] ;
190 -> 191 ;
192 [label="gini = 0.0\nsamples = 1\nvalue = [0, 1]"] ;
190 -> 192 ;
193 [label="gini = 0.0\nsamples = 38\nvalue = [38, 0]"] ;
189 -> 193 ;
194 [label="X[14] <= 1.5\ngini = 0.0221\nsamples = 268\nvalue = [265, 3]"] ;
10 -> 194 ;
195 [label="gini = 0.0\nsamples = 227\nvalue = [227, 0]"] ;
194 -> 195 ;
196 [label="X[3] <= 10.0\ngini = 0.1356\nsamples = 41\nvalue = [38, 3]"] ;
194 -> 196 ;
197 [label="gini = 0.0\nsamples = 1\nvalue = [0, 1]"] ;
196 -> 197 ;
198 [label="X[1] <= 2.5\ngini = 0.095\nsamples = 40\nvalue = [38, 2]"] ;
196 -> 198 ;
199 [label="X[39] <= 9.5\ngini = 0.0526\nsamples = 37\nvalue = [36, 1]"] ;
198 -> 199 ;
200 [label="X[24] <= 1972.79\ngini = 0.4444\nsamples = 3\nvalue = [2, 1]"] ;
199 -> 200 ;
201 [label="gini = 0.0\nsamples = 2\nvalue = [2, 0]"] ;
200 -> 201 ;
202 [label="gini = 0.0\nsamples = 1\nvalue = [0, 1]"] ;
200 -> 202 ;
203 [label="gini = 0.0\nsamples = 34\nvalue = [34, 0]"] ;
199 -> 203 ;
204 [label="X[0] <= 35.5\ngini = 0.4444\nsamples = 3\nvalue = [2, 1]"] ;
198 -> 204 ;
205 [label="gini = 0.0\nsamples = 2\nvalue = [2, 0]"] ;
204 -> 205 ;
206 [label="gini = 0.0\nsamples = 1\nvalue = [0, 1]"] ;
204 -> 206 ;
207 [label="X[23] <= 1.5\ngini = 0.0174\nsamples = 27634\nvalue = [27392, 242]"] ;
7 -> 207 ;
208 [label="X[0] <= 35.5\ngini = 0.03\nsamples = 12407\nvalue = [12218, 189]"] ;
207 -> 208 ;
209 [label="X[2] <= 44.5\ngini = 0.0074\nsamples = 1875\nvalue = [1868, 7]"] ;
208 -> 209 ;
210 [label="X[14] <= 1.5\ngini = 0.0044\nsamples = 1819\nvalue = [1815, 4]"] ;
209 -> 210 ;
211 [label="X[35] <= 1.5\ngini = 0.0025\nsamples = 1598\nvalue = [1596, 2]"] ;
210 -> 211 ;
212 [label="X[7] <= 3.5\ngini = 0.0013\nsamples = 1533\nvalue = [1532, 1]"] ;
211 -> 212 ;
213 [label="gini = 0.0\nsamples = 1448\nvalue = [1448, 0]"] ;
212 -> 213 ;
214 [label="X[0] <= 34.5\ngini = 0.0233\nsamples = 85\nvalue = [84, 1]"] ;
212 -> 214 ;
215 [label="gini = 0.0\nsamples = 78\nvalue = [78, 0]"] ;
214 -> 215 ;
216 [label="X[15] <= 0.5\ngini = 0.2449\nsamples = 7\nvalue = [6, 1]"] ;
214 -> 216 ;
217 [label="X[24] <= 1704.26\ngini = 0.5\nsamples = 2\nvalue = [1, 1]"] ;
216 -> 217 ;
218 [label="gini = 0.0\nsamples = 1\nvalue = [1, 0]"] ;
217 -> 218 ;
219 [label="gini = 0.0\nsamples = 1\nvalue = [0, 1]"] ;
217 -> 219 ;
220 [label="gini = 0.0\nsamples = 5\nvalue = [5, 0]"] ;
216 -> 220 ;
221 [label="X[24] <= 484.205\ngini = 0.0303\nsamples = 65\nvalue = [64, 1]"] ;
211 -> 221 ;
222 [label="X[24] <= 417.96\ngini = 0.32\nsamples = 5\nvalue = [4, 1]"] ;
221 -> 222 ;
223 [label="gini = 0.0\nsamples = 4\nvalue = [4, 0]"] ;
222 -> 223 ;
224 [label="gini = 0.0\nsamples = 1\nvalue = [0, 1]"] ;
222 -> 224 ;
225 [label="gini = 0.0\nsamples = 60\nvalue = [60, 0]"] ;
221 -> 225 ;
226 [label="X[22] <= 6.5\ngini = 0.0179\nsamples = 221\nvalue = [219, 2]"] ;
210 -> 226 ;
227 [label="gini = 0.0\nsamples = 160\nvalue = [160, 0]"] ;
226 -> 227 ;
228 [label="X[14] <= 2.5\ngini = 0.0634\nsamples = 61\nvalue = [59, 2]"] ;
226 -> 228 ;
229 [label="X[3] <= 14.0\ngini = 0.1528\nsamples = 24\nvalue = [22, 2]"] ;
228 -> 229 ;
230 [label="gini = 0.0\nsamples = 1\nvalue = [0, 1]"] ;
229 -> 230 ;
231 [label="X[10] <= 0.5\ngini = 0.0832\nsamples = 23\nvalue = [22, 1]"] ;
229 -> 231 ;
232 [label="gini = 0.0\nsamples = 16\nvalue = [16, 0]"] ;
231 -> 232 ;
233 [label="X[10] <= 1.5\ngini = 0.2449\nsamples = 7\nvalue = [6, 1]"] ;
231 -> 233 ;
234 [label="gini = 0.0\nsamples = 1\nvalue = [0, 1]"] ;
233 -> 234 ;
235 [label="gini = 0.0\nsamples = 6\nvalue = [6, 0]"] ;
233 -> 235 ;
236 [label="gini = 0.0\nsamples = 37\nvalue = [37, 0]"] ;
228 -> 236 ;
237 [label="X[33] <= 24.5\ngini = 0.1014\nsamples = 56\nvalue = [53, 3]"] ;
209 -> 237 ;
238 [label="X[11] <= 4.5\ngini = 0.0701\nsamples = 55\nvalue = [53, 2]"] ;
237 -> 238 ;
239 [label="X[9] <= 12.5\ngini = 0.0377\nsamples = 52\nvalue = [51, 1]"] ;
238 -> 239 ;
240 [label="gini = 0.0\nsamples = 46\nvalue = [46, 0]"] ;
239 -> 240 ;
241 [label="X[1] <= 3.5\ngini = 0.2778\nsamples = 6\nvalue = [5, 1]"] ;
239 -> 241 ;
242 [label="gini = 0.0\nsamples = 1\nvalue = [0, 1]"] ;
241 -> 242 ;
243 [label="gini = 0.0\nsamples = 5\nvalue = [5, 0]"] ;
241 -> 243 ;
244 [label="X[1] <= 3.0\ngini = 0.4444\nsamples = 3\nvalue = [2, 1]"] ;
238 -> 244 ;
245 [label="gini = 0.0\nsamples = 1\nvalue = [0, 1]"] ;
244 -> 245 ;
246 [label="gini = 0.0\nsamples = 2\nvalue = [2, 0]"] ;
244 -> 246 ;
247 [label="gini = 0.0\nsamples = 1\nvalue = [0, 1]"] ;
237 -> 247 ;
248 [label="X[36] <= 0.5\ngini = 0.034\nsamples = 10532\nvalue = [10350, 182]"] ;
208 -> 248 ;
249 [label="X[3] <= 45.5\ngini = 0.0315\nsamples = 10260\nvalue = [10096, 164]"] ;
248 -> 249 ;
250 [label="X[4] <= 7.5\ngini = 0.0313\nsamples = 10258\nvalue = [10095, 163]"] ;
249 -> 250 ;
251 [label="X[4] <= 3.0\ngini = 0.037\nsamples = 7100\nvalue = [6966, 134]"] ;
250 -> 251 ;
252 [label="X[0] <= 36.5\ngini = 0.0266\nsamples = 5785\nvalue = [5707, 78]"] ;
251 -> 252 ;
253 [label="X[16] <= 3682.0\ngini = 0.1207\nsamples = 62\nvalue = [58, 4]"] ;
252 -> 253 ;
254 [label="X[17] <= 312.5\ngini = 0.0935\nsamples = 61\nvalue = [58, 3]"] ;
253 -> 254 ;
255 [label="X[15] <= 5.0\ngini = 0.0644\nsamples = 60\nvalue = [58, 2]"] ;
254 -> 255 ;
256 [label="X[7] <= 3.5\ngini = 0.0345\nsamples = 57\nvalue = [56, 1]"] ;
255 -> 256 ;
257 [label="gini = 0.0\nsamples = 51\nvalue = [51, 0]"] ;
256 -> 257 ;
258 [label="X[33] <= 1.0\ngini = 0.2778\nsamples = 6\nvalue = [5, 1]"] ;
256 -> 258 ;
259 [label="gini = 0.0\nsamples = 5\nvalue = [5, 0]"] ;
258 -> 259 ;
260 [label="gini = 0.0\nsamples = 1\nvalue = [0, 1]"] ;
258 -> 260 ;
261 [label="X[30] <= 2.5\ngini = 0.4444\nsamples = 3\nvalue = [2, 1]"] ;
255 -> 261 ;
262 [label="gini = 0.0\nsamples = 2\nvalue = [2, 0]"] ;
261 -> 262 ;
263 [label="gini = 0.0\nsamples = 1\nvalue = [0, 1]"] ;
261 -> 263 ;
264 [label="gini = 0.0\nsamples = 1\nvalue = [0, 1]"] ;
254 -> 264 ;
265 [label="gini = 0.0\nsamples = 1\nvalue = [0, 1]"] ;
253 -> 265 ;
266 [label="X[22] <= 6.5\ngini = 0.0255\nsamples = 5723\nvalue = [5649, 74]"] ;
252 -> 266 ;
267 [label="X[27] <= 7.5\ngini = 0.0181\nsamples = 3719\nvalue = [3685, 34]"] ;
266 -> 267 ;
268 [label="X[3] <= 2.5\ngini = 0.0176\nsamples = 3710\nvalue = [3677, 33]"] ;
267 -> 268 ;
269 [label="X[39] <= 12.5\ngini = 0.0201\nsamples = 3258\nvalue = [3225, 33]"] ;
268 -> 269 ;
270 [label="X[11] <= 8.5\ngini = 0.0181\nsamples = 3173\nvalue = [3144, 29]"] ;
269 -> 270 ;
271 [label="X[0] <= 76.5\ngini = 0.0176\nsamples = 3155\nvalue = [3127, 28]"] ;
270 -> 271 ;
272 [label="X[0] <= 74.5\ngini = 0.0207\nsamples = 2578\nvalue = [2551, 27]"] ;
271 -> 272 ;
273 [label="X[24] <= 407.3\ngini = 0.0183\nsamples = 2384\nvalue = [2362, 22]"] ;
272 -> 273 ;
274 [label="X[24] <= 404.08\ngini = 0.0599\nsamples = 97\nvalue = [94, 3]"] ;
273 -> 274 ;
275 [label="X[0] <= 61.5\ngini = 0.0408\nsamples = 96\nvalue = [94, 2]"] ;
274 -> 275 ;
276 [label="X[0] <= 60.5\ngini = 0.1078\nsamples = 35\nvalue = [33, 2]"] ;
275 -> 276 ;
277 [label="X[24] <= 380.095\ngini = 0.0588\nsamples = 33\nvalue = [32, 1]"] ;
276 -> 277 ;
278 [label="gini = 0.0\nsamples = 30\nvalue = [30, 0]"] ;
277 -> 278 ;
279 [label="X[30] <= 0.5\ngini = 0.4444\nsamples = 3\nvalue = [2, 1]"] ;
277 -> 279 ;
280 [label="gini = 0.0\nsamples = 1\nvalue = [0, 1]"] ;
279 -> 280 ;
281 [label="gini = 0.0\nsamples = 2\nvalue = [2, 0]"] ;
279 -> 281 ;
282 [label="X[40] <= 94.5\ngini = 0.5\nsamples = 2\nvalue = [1, 1]"] ;
276 -> 282 ;
283 [label="gini = 0.0\nsamples = 1\nvalue = [0, 1]"] ;
282 -> 283 ;
284 [label="gini = 0.0\nsamples = 1\nvalue = [1, 0]"] ;
282 -> 284 ;
285 [label="gini = 0.0\nsamples = 61\nvalue = [61, 0]"] ;
275 -> 285 ;
286 [label="gini = 0.0\nsamples = 1\nvalue = [0, 1]"] ;
274 -> 286 ;
287 [label="X[34] <= 6.5\ngini = 0.0165\nsamples = 2287\nvalue = [2268, 19]"] ;
273 -> 287 ;
288 [label="X[24] <= 2218.4951\ngini = 0.0145\nsamples = 2188\nvalue = [2172, 16]"] ;
287 -> 288 ;
289 [label="X[24] <= 2217.9448\ngini = 0.019\nsamples = 1672\nvalue = [1656, 16]"] ;
288 -> 289 ;
290 [label="X[19] <= 2.5\ngini = 0.0178\nsamples = 1671\nvalue = [1656, 15]"] ;
289 -> 290 ;
291 [label="X[7] <= 0.5\ngini = 0.0269\nsamples = 733\nvalue = [723, 10]"] ;
290 -> 291 ;
292 [label="X[0] <= 65.5\ngini = 0.0726\nsamples = 53\nvalue = [51, 2]"] ;
291 -> 292 ;
293 [label="X[0] <= 64.5\ngini = 0.1528\nsamples = 24\nvalue = [22, 2]"] ;
292 -> 293 ;
294 [label="X[10] <= 1.5\ngini = 0.0868\nsamples = 22\nvalue = [21, 1]"] ;
293 -> 294 ;
295 [label="gini = 0.0\nsamples = 16\nvalue = [16, 0]"] ;
294 -> 295 ;
296 [label="X[4] <= 0.5\ngini = 0.2778\nsamples = 6\nvalue = [5, 1]"] ;
294 -> 296 ;
297 [label="gini = 0.0\nsamples = 4\nvalue = [4, 0]"] ;
296 -> 297 ;
298 [label="X[37] <= 1.0\ngini = 0.5\nsamples = 2\nvalue = [1, 1]"] ;
296 -> 298 ;
299 [label="gini = 0.0\nsamples = 1\nvalue = [0, 1]"] ;
298 -> 299 ;
300 [label="gini = 0.0\nsamples = 1\nvalue = [1, 0]"] ;
298 -> 300 ;
301 [label="X[24] <= 1313.53\ngini = 0.5\nsamples = 2\nvalue = [1, 1]"] ;
293 -> 301 ;
302 [label="gini = 0.0\nsamples = 1\nvalue = [1, 0]"] ;
301 -> 302 ;
303 [label="gini = 0.0\nsamples = 1\nvalue = [0, 1]"] ;
301 -> 303 ;
304 [label="gini = 0.0\nsamples = 29\nvalue = [29, 0]"] ;
292 -> 304 ;
305 [label="X[24] <= 1215.355\ngini = 0.0233\nsamples = 680\nvalue = [672, 8]"] ;
291 -> 305 ;
306 [label="X[24] <= 1214.0601\ngini = 0.0452\nsamples = 216\nvalue = [211, 5]"] ;
305 -> 306 ;
307 [label="X[24] <= 1068.495\ngini = 0.0365\nsamples = 215\nvalue = [211, 4]"] ;
306 -> 307 ;
308 [label="X[24] <= 982.125\ngini = 0.0126\nsamples = 158\nvalue = [157, 1]"] ;
307 -> 308 ;
309 [label="gini = 0.0\nsamples = 108\nvalue = [108, 0]"] ;
308 -> 309 ;
310 [label="X[24] <= 983.045\ngini = 0.0392\nsamples = 50\nvalue = [49, 1]"] ;
308 -> 310 ;
311 [label="gini = 0.0\nsamples = 1\nvalue = [0, 1]"] ;
310 -> 311 ;
312 [label="gini = 0.0\nsamples = 49\nvalue = [49, 0]"] ;
310 -> 312 ;
313 [label="X[24] <= 1070.215\ngini = 0.0997\nsamples = 57\nvalue = [54, 3]"] ;
307 -> 313 ;
314 [label="gini = 0.0\nsamples = 1\nvalue = [0, 1]"] ;
313 -> 314 ;
315 [label="X[15] <= 0.5\ngini = 0.0689\nsamples = 56\nvalue = [54, 2]"] ;
313 -> 315 ;
316 [label="X[0] <= 59.5\ngini = 0.1207\nsamples = 31\nvalue = [29, 2]"] ;
315 -> 316 ;
317 [label="X[0] <= 58.5\ngini = 0.18\nsamples = 20\nvalue = [18, 2]"] ;
316 -> 317 ;
318 [label="X[24] <= 1176.86\ngini = 0.1049\nsamples = 18\nvalue = [17, 1]"] ;
317 -> 318 ;
319 [label="gini = 0.0\nsamples = 15\nvalue = [15, 0]"] ;
318 -> 319 ;
320 [label="X[0] <= 46.5\ngini = 0.4444\nsamples = 3\nvalue = [2, 1]"] ;
318 -> 320 ;
321 [label="gini = 0.0\nsamples = 2\nvalue = [2, 0]"] ;
320 -> 321 ;
322 [label="gini = 0.0\nsamples = 1\nvalue = [0, 1]"] ;
320 -> 322 ;
323 [label="X[32] <= 8.0\ngini = 0.5\nsamples = 2\nvalue = [1, 1]"] ;
317 -> 323 ;
324 [label="gini = 0.0\nsamples = 1\nvalue = [0, 1]"] ;
323 -> 324 ;
325 [label="gini = 0.0\nsamples = 1\nvalue = [1, 0]"] ;
323 -> 325 ;
326 [label="gini = 0.0\nsamples = 11\nvalue = [11, 0]"] ;
316 -> 326 ;
327 [label="gini = 0.0\nsamples = 25\nvalue = [25, 0]"] ;
315 -> 327 ;
328 [label="gini = 0.0\nsamples = 1\nvalue = [0, 1]"] ;
306 -> 328 ;
329 [label="X[24] <= 1642.4651\ngini = 0.0128\nsamples = 464\nvalue = [461, 3]"] ;
305 -> 329 ;
330 [label="gini = 0.0\nsamples = 193\nvalue = [193, 0]"] ;
329 -> 330 ;
331 [label="X[24] <= 1644.1101\ngini = 0.0219\nsamples = 271\nvalue = [268, 3]"] ;
329 -> 331 ;
332 [label="gini = 0.0\nsamples = 1\nvalue = [0, 1]"] ;
331 -> 332 ;
333 [label="X[24] <= 1653.1851\ngini = 0.0147\nsamples = 270\nvalue = [268, 2]"] ;
331 -> 333 ;
334 [label="X[24] <= 1652.0349\ngini = 0.2449\nsamples = 7\nvalue = [6, 1]"] ;
333 -> 334 ;
335 [label="gini = 0.0\nsamples = 5\nvalue = [5, 0]"] ;
334 -> 335 ;
336 [label="X[38] <= 1.5\ngini = 0.5\nsamples = 2\nvalue = [1, 1]"] ;
334 -> 336 ;
337 [label="gini = 0.0\nsamples = 1\nvalue = [1, 0]"] ;
336 -> 337 ;
338 [label="gini = 0.0\nsamples = 1\nvalue = [0, 1]"] ;
336 -> 338 ;
339 [label="X[0] <= 47.5\ngini = 0.0076\nsamples = 263\nvalue = [262, 1]"] ;
333 -> 339 ;
340 [label="X[0] <= 46.5\ngini = 0.0364\nsamples = 54\nvalue = [53, 1]"] ;
339 -> 340 ;
341 [label="gini = 0.0\nsamples = 51\nvalue = [51, 0]"] ;
340 -> 341 ;
342 [label="X[40] <= 94.5\ngini = 0.4444\nsamples = 3\nvalue = [2, 1]"] ;
340 -> 342 ;
343 [label="gini = 0.0\nsamples = 2\nvalue = [2, 0]"] ;
342 -> 343 ;
344 [label="gini = 0.0\nsamples = 1\nvalue = [0, 1]"] ;
342 -> 344 ;
345 [label="gini = 0.0\nsamples = 209\nvalue = [209, 0]"] ;
339 -> 345 ;
346 [label="X[17] <= 209.5\ngini = 0.0106\nsamples = 938\nvalue = [933, 5]"] ;
290 -> 346 ;
347 [label="X[24] <= 595.58\ngini = 0.0087\nsamples = 915\nvalue = [911, 4]"] ;
346 -> 347 ;
348 [label="X[24] <= 591.725\ngini = 0.0444\nsamples = 44\nvalue = [43, 1]"] ;
347 -> 348 ;
349 [label="gini = 0.0\nsamples = 43\nvalue = [43, 0]"] ;
348 -> 349 ;
350 [label="gini = 0.0\nsamples = 1\nvalue = [0, 1]"] ;
348 -> 350 ;
351 [label="X[24] <= 1696.985\ngini = 0.0069\nsamples = 871\nvalue = [868, 3]"] ;
347 -> 351 ;
352 [label="gini = 0.0\nsamples = 569\nvalue = [569, 0]"] ;
351 -> 352 ;
353 [label="X[24] <= 1700.5549\ngini = 0.0197\nsamples = 302\nvalue = [299, 3]"] ;
351 -> 353 ;
354 [label="gini = 0.0\nsamples = 1\nvalue = [0, 1]"] ;
353 -> 354 ;
355 [label="X[37] <= 0.5\ngini = 0.0132\nsamples = 301\nvalue = [299, 2]"] ;
353 -> 355 ;
356 [label="X[0] <= 64.5\ngini = 0.0071\nsamples = 281\nvalue = [280, 1]"] ;
355 -> 356 ;
357 [label="X[0] <= 63.5\ngini = 0.0713\nsamples = 27\nvalue = [26, 1]"] ;
356 -> 357 ;
358 [label="gini = 0.0\nsamples = 22\nvalue = [22, 0]"] ;
357 -> 358 ;
359 [label="X[4] <= 0.5\ngini = 0.32\nsamples = 5\nvalue = [4, 1]"] ;
357 -> 359 ;
360 [label="X[24] <= 1923.485\ngini = 0.5\nsamples = 2\nvalue = [1, 1]"] ;
359 -> 360 ;
361 [label="gini = 0.0\nsamples = 1\nvalue = [0, 1]"] ;
360 -> 361 ;
362 [label="gini = 0.0\nsamples = 1\nvalue = [1, 0]"] ;
360 -> 362 ;
363 [label="gini = 0.0\nsamples = 3\nvalue = [3, 0]"] ;
359 -> 363 ;
364 [label="gini = 0.0\nsamples = 254\nvalue = [254, 0]"] ;
356 -> 364 ;
365 [label="X[0] <= 71.5\ngini = 0.095\nsamples = 20\nvalue = [19, 1]"] ;
355 -> 365 ;
366 [label="gini = 0.0\nsamples = 13\nvalue = [13, 0]"] ;
365 -> 366 ;
367 [label="X[0] <= 72.5\ngini = 0.2449\nsamples = 7\nvalue = [6, 1]"] ;
365 -> 367 ;
368 [label="X[24] <= 2057.4351\ngini = 0.4444\nsamples = 3\nvalue = [2, 1]"] ;
367 -> 368 ;
369 [label="gini = 0.0\nsamples = 1\nvalue = [0, 1]"] ;
368 -> 369 ;
370 [label="gini = 0.0\nsamples = 2\nvalue = [2, 0]"] ;
368 -> 370 ;
371 [label="gini = 0.0\nsamples = 4\nvalue = [4, 0]"] ;
367 -> 371 ;
372 [label="X[17] <= 838.5\ngini = 0.0832\nsamples = 23\nvalue = [22, 1]"] ;
346 -> 372 ;
373 [label="X[0] <= 69.0\ngini = 0.32\nsamples = 5\nvalue = [4, 1]"] ;
372 -> 373 ;
374 [label="gini = 0.0\nsamples = 1\nvalue = [0, 1]"] ;
373 -> 374 ;
375 [label="gini = 0.0\nsamples = 4\nvalue = [4, 0]"] ;
373 -> 375 ;
376 [label="gini = 0.0\nsamples = 18\nvalue = [18, 0]"] ;
372 -> 376 ;
377 [label="gini = 0.0\nsamples = 1\nvalue = [0, 1]"] ;
289 -> 377 ;
378 [label="gini = 0.0\nsamples = 516\nvalue = [516, 0]"] ;
288 -> 378 ;
379 [label="X[34] <= 8.5\ngini = 0.0588\nsamples = 99\nvalue = [96, 3]"] ;
287 -> 379 ;
380 [label="X[0] <= 65.0\ngini = 0.3457\nsamples = 9\nvalue = [7, 2]"] ;
379 -> 380 ;
381 [label="gini = 0.0\nsamples = 6\nvalue = [6, 0]"] ;
380 -> 381 ;
382 [label="X[10] <= 0.5\ngini = 0.4444\nsamples = 3\nvalue = [1, 2]"] ;
380 -> 382 ;
383 [label="gini = 0.0\nsamples = 2\nvalue = [0, 2]"] ;
382 -> 383 ;
384 [label="gini = 0.0\nsamples = 1\nvalue = [1, 0]"] ;
382 -> 384 ;
385 [label="X[32] <= 24.5\ngini = 0.022\nsamples = 90\nvalue = [89, 1]"] ;
379 -> 385 ;
386 [label="gini = 0.0\nsamples = 69\nvalue = [69, 0]"] ;
385 -> 386 ;
387 [label="X[32] <= 25.5\ngini = 0.0907\nsamples = 21\nvalue = [20, 1]"] ;
385 -> 387 ;
388 [label="X[0] <= 68.0\ngini = 0.2449\nsamples = 7\nvalue = [6, 1]"] ;
387 -> 388 ;
389 [label="X[0] <= 64.0\ngini = 0.5\nsamples = 2\nvalue = [1, 1]"] ;
388 -> 389 ;
390 [label="gini = 0.0\nsamples = 1\nvalue = [1, 0]"] ;
389 -> 390 ;
391 [label="gini = 0.0\nsamples = 1\nvalue = [0, 1]"] ;
389 -> 391 ;
392 [label="gini = 0.0\nsamples = 5\nvalue = [5, 0]"] ;
388 -> 392 ;
393 [label="gini = 0.0\nsamples = 14\nvalue = [14, 0]"] ;
387 -> 393 ;
394 [label="X[32] <= 29.5\ngini = 0.0502\nsamples = 194\nvalue = [189, 5]"] ;
272 -> 394 ;
395 [label="X[24] <= 2499.24\ngini = 0.0408\nsamples = 192\nvalue = [188, 4]"] ;
394 -> 395 ;
396 [label="X[38] <= 1.5\ngini = 0.025\nsamples = 158\nvalue = [156, 2]"] ;
395 -> 396 ;
397 [label="X[24] <= 1870.1851\ngini = 0.1653\nsamples = 11\nvalue = [10, 1]"] ;
396 -> 397 ;
398 [label="gini = 0.0\nsamples = 9\nvalue = [9, 0]"] ;
397 -> 398 ;
399 [label="X[4] <= 1.0\ngini = 0.5\nsamples = 2\nvalue = [1, 1]"] ;
397 -> 399 ;
400 [label="gini = 0.0\nsamples = 1\nvalue = [0, 1]"] ;
399 -> 400 ;
401 [label="gini = 0.0\nsamples = 1\nvalue = [1, 0]"] ;
399 -> 401 ;
402 [label="X[24] <= 923.53\ngini = 0.0135\nsamples = 147\nvalue = [146, 1]"] ;
396 -> 402 ;
403 [label="X[24] <= 922.215\ngini = 0.0644\nsamples = 30\nvalue = [29, 1]"] ;
402 -> 403 ;
404 [label="gini = 0.0\nsamples = 29\nvalue = [29, 0]"] ;
403 -> 404 ;
405 [label="gini = 0.0\nsamples = 1\nvalue = [0, 1]"] ;
403 -> 405 ;
406 [label="gini = 0.0\nsamples = 117\nvalue = [117, 0]"] ;
402 -> 406 ;
407 [label="X[24] <= 2551.2749\ngini = 0.1107\nsamples = 34\nvalue = [32, 2]"] ;
395 -> 407 ;
408 [label="gini = 0.0\nsamples = 1\nvalue = [0, 1]"] ;
407 -> 408 ;
409 [label="X[24] <= 3293.9551\ngini = 0.0588\nsamples = 33\nvalue = [32, 1]"] ;
407 -> 409 ;
410 [label="gini = 0.0\nsamples = 22\nvalue = [22, 0]"] ;
409 -> 410 ;
411 [label="X[24] <= 3323.2051\ngini = 0.1653\nsamples = 11\nvalue = [10, 1]"] ;
409 -> 411 ;
412 [label="gini = 0.0\nsamples = 1\nvalue = [0, 1]"] ;
411 -> 412 ;
413 [label="gini = 0.0\nsamples = 10\nvalue = [10, 0]"] ;
411 -> 413 ;
414 [label="X[33] <= 7.5\ngini = 0.5\nsamples = 2\nvalue = [1, 1]"] ;
394 -> 414 ;
415 [label="gini = 0.0\nsamples = 1\nvalue = [1, 0]"] ;
414 -> 415 ;
416 [label="gini = 0.0\nsamples = 1\nvalue = [0, 1]"] ;
414 -> 416 ;
417 [label="X[24] <= 3155.0901\ngini = 0.0035\nsamples = 577\nvalue = [576, 1]"] ;
271 -> 417 ;
418 [label="gini = 0.0\nsamples = 528\nvalue = [528, 0]"] ;
417 -> 418 ;
419 [label="X[24] <= 3160.2749\ngini = 0.04\nsamples = 49\nvalue = [48, 1]"] ;
417 -> 419 ;
420 [label="gini = 0.0\nsamples = 1\nvalue = [0, 1]"] ;
419 -> 420 ;
421 [label="gini = 0.0\nsamples = 48\nvalue = [48, 0]"] ;
419 -> 421 ;
422 [label="X[32] <= 19.0\ngini = 0.1049\nsamples = 18\nvalue = [17, 1]"] ;
270 -> 422 ;
423 [label="gini = 0.0\nsamples = 15\nvalue = [15, 0]"] ;
422 -> 423 ;
424 [label="X[0] <= 65.5\ngini = 0.4444\nsamples = 3\nvalue = [2, 1]"] ;
422 -> 424 ;
425 [label="gini = 0.0\nsamples = 1\nvalue = [0, 1]"] ;
424 -> 425 ;
426 [label="gini = 0.0\nsamples = 2\nvalue = [2, 0]"] ;
424 -> 426 ;
427 [label="X[33] <= 24.5\ngini = 0.0897\nsamples = 85\nvalue = [81, 4]"] ;
269 -> 427 ;
428 [label="X[8] <= 5.5\ngini = 0.0705\nsamples = 82\nvalue = [79, 3]"] ;
427 -> 428 ;
429 [label="X[39] <= 13.5\ngini = 0.0506\nsamples = 77\nvalue = [75, 2]"] ;
428 -> 429 ;
430 [label="X[30] <= 1.5\ngini = 0.2449\nsamples = 7\nvalue = [6, 1]"] ;
429 -> 430 ;
431 [label="gini = 0.0\nsamples = 1\nvalue = [0, 1]"] ;
430 -> 431 ;
432 [label="gini = 0.0\nsamples = 6\nvalue = [6, 0]"] ;
430 -> 432 ;
433 [label="X[30] <= 5.5\ngini = 0.0282\nsamples = 70\nvalue = [69, 1]"] ;
429 -> 433 ;
434 [label="gini = 0.0\nsamples = 48\nvalue = [48, 0]"] ;
433 -> 434 ;
435 [label="X[0] <= 49.5\ngini = 0.0868\nsamples = 22\nvalue = [21, 1]"] ;
433 -> 435 ;
436 [label="X[0] <= 47.0\ngini = 0.1975\nsamples = 9\nvalue = [8, 1]"] ;
435 -> 436 ;
437 [label="gini = 0.0\nsamples = 8\nvalue = [8, 0]"] ;
436 -> 437 ;
438 [label="gini = 0.0\nsamples = 1\nvalue = [0, 1]"] ;
436 -> 438 ;
439 [label="gini = 0.0\nsamples = 13\nvalue = [13, 0]"] ;
435 -> 439 ;
440 [label="X[2] <= 20.0\ngini = 0.32\nsamples = 5\nvalue = [4, 1]"] ;
428 -> 440 ;
441 [label="gini = 0.0\nsamples = 1\nvalue = [0, 1]"] ;
440 -> 441 ;
442 [label="gini = 0.0\nsamples = 4\nvalue = [4, 0]"] ;
440 -> 442 ;
443 [label="X[24] <= 1248.995\ngini = 0.4444\nsamples = 3\nvalue = [2, 1]"] ;
427 -> 443 ;
444 [label="gini = 0.0\nsamples = 1\nvalue = [0, 1]"] ;
443 -> 444 ;
445 [label="gini = 0.0\nsamples = 2\nvalue = [2, 0]"] ;
443 -> 445 ;
446 [label="gini = 0.0\nsamples = 452\nvalue = [452, 0]"] ;
268 -> 446 ;
447 [label="X[12] <= 0.5\ngini = 0.1975\nsamples = 9\nvalue = [8, 1]"] ;
267 -> 447 ;
448 [label="gini = 0.0\nsamples = 1\nvalue = [0, 1]"] ;
447 -> 448 ;
449 [label="gini = 0.0\nsamples = 8\nvalue = [8, 0]"] ;
447 -> 449 ;
450 [label="X[17] <= 1418.5\ngini = 0.0391\nsamples = 2004\nvalue = [1964, 40]"] ;
266 -> 450 ;
451 [label="X[30] <= 5.5\ngini = 0.0369\nsamples = 1969\nvalue = [1932, 37]"] ;
450 -> 451 ;
452 [label="X[12] <= 0.5\ngini = 0.034\nsamples = 1905\nvalue = [1872, 33]"] ;
451 -> 452 ;
453 [label="X[39] <= 11.0\ngini = 0.026\nsamples = 1369\nvalue = [1351, 18]"] ;
452 -> 453 ;
454 [label="X[24] <= 4003.48\ngini = 0.0239\nsamples = 1323\nvalue = [1307, 16]"] ;
453 -> 454 ;
455 [label="X[24] <= 1254.3401\ngini = 0.0227\nsamples = 1306\nvalue = [1291, 15]"] ;
454 -> 455 ;
456 [label="X[24] <= 1253.5701\ngini = 0.0385\nsamples = 407\nvalue = [399, 8]"] ;
455 -> 456 ;
457 [label="X[24] <= 722.275\ngini = 0.0339\nsamples = 406\nvalue = [399, 7]"] ;
456 -> 457 ;
458 [label="gini = 0.0\nsamples = 134\nvalue = [134, 0]"] ;
457 -> 458 ;
459 [label="X[24] <= 726.865\ngini = 0.0501\nsamples = 272\nvalue = [265, 7]"] ;
457 -> 459 ;
460 [label="X[18] <= 20.5\ngini = 0.5\nsamples = 2\nvalue = [1, 1]"] ;
459 -> 460 ;
461 [label="gini = 0.0\nsamples = 1\nvalue = [0, 1]"] ;
460 -> 461 ;
462 [label="gini = 0.0\nsamples = 1\nvalue = [1, 0]"] ;
460 -> 462 ;
463 [label="X[24] <= 811.655\ngini = 0.0435\nsamples = 270\nvalue = [264, 6]"] ;
459 -> 463 ;
464 [label="X[24] <= 807.785\ngini = 0.2188\nsamples = 16\nvalue = [14, 2]"] ;
463 -> 464 ;
465 [label="X[24] <= 798.69\ngini = 0.1244\nsamples = 15\nvalue = [14, 1]"] ;
464 -> 465 ;
466 [label="gini = 0.0\nsamples = 12\nvalue = [12, 0]"] ;
465 -> 466 ;
467 [label="X[0] <= 73.0\ngini = 0.4444\nsamples = 3\nvalue = [2, 1]"] ;
465 -> 467 ;
468 [label="gini = 0.0\nsamples = 1\nvalue = [0, 1]"] ;
467 -> 468 ;
469 [label="gini = 0.0\nsamples = 2\nvalue = [2, 0]"] ;
467 -> 469 ;
470 [label="gini = 0.0\nsamples = 1\nvalue = [0, 1]"] ;
464 -> 470 ;
471 [label="X[24] <= 1115.9451\ngini = 0.031\nsamples = 254\nvalue = [250, 4]"] ;
463 -> 471 ;
472 [label="X[24] <= 914.125\ngini = 0.0117\nsamples = 170\nvalue = [169, 1]"] ;
471 -> 472 ;
473 [label="X[24] <= 912.42\ngini = 0.0425\nsamples = 46\nvalue = [45, 1]"] ;
472 -> 473 ;
474 [label="gini = 0.0\nsamples = 45\nvalue = [45, 0]"] ;
473 -> 474 ;
475 [label="gini = 0.0\nsamples = 1\nvalue = [0, 1]"] ;
473 -> 475 ;
476 [label="gini = 0.0\nsamples = 124\nvalue = [124, 0]"] ;
472 -> 476 ;
477 [label="X[24] <= 1116.3149\ngini = 0.0689\nsamples = 84\nvalue = [81, 3]"] ;
471 -> 477 ;
478 [label="gini = 0.0\nsamples = 1\nvalue = [0, 1]"] ;
477 -> 478 ;
479 [label="X[10] <= 2.0\ngini = 0.047\nsamples = 83\nvalue = [81, 2]"] ;
477 -> 479 ;
480 [label="X[0] <= 84.5\ngini = 0.0263\nsamples = 75\nvalue = [74, 1]"] ;
479 -> 480 ;
481 [label="gini = 0.0\nsamples = 66\nvalue = [66, 0]"] ;
480 -> 481 ;
482 [label="X[0] <= 85.5\ngini = 0.1975\nsamples = 9\nvalue = [8, 1]"] ;
480 -> 482 ;
483 [label="gini = 0.0\nsamples = 1\nvalue = [0, 1]"] ;
482 -> 483 ;
484 [label="gini = 0.0\nsamples = 8\nvalue = [8, 0]"] ;
482 -> 484 ;
485 [label="X[24] <= 1145.5549\ngini = 0.2188\nsamples = 8\nvalue = [7, 1]"] ;
479 -> 485 ;
486 [label="X[0] <= 66.0\ngini = 0.4444\nsamples = 3\nvalue = [2, 1]"] ;
485 -> 486 ;
487 [label="gini = 0.0\nsamples = 2\nvalue = [2, 0]"] ;
486 -> 487 ;
488 [label="gini = 0.0\nsamples = 1\nvalue = [0, 1]"] ;
486 -> 488 ;
489 [label="gini = 0.0\nsamples = 5\nvalue = [5, 0]"] ;
485 -> 489 ;
490 [label="gini = 0.0\nsamples = 1\nvalue = [0, 1]"] ;
456 -> 490 ;
491 [label="X[7] <= 3.5\ngini = 0.0155\nsamples = 899\nvalue = [892, 7]"] ;
455 -> 491 ;
492 [label="X[24] <= 2345.1699\ngini = 0.0135\nsamples = 881\nvalue = [875, 6]"] ;
491 -> 492 ;
493 [label="X[0] <= 74.5\ngini = 0.0059\nsamples = 675\nvalue = [673, 2]"] ;
492 -> 493 ;
494 [label="gini = 0.0\nsamples = 359\nvalue = [359, 0]"] ;
493 -> 494 ;
495 [label="X[0] <= 75.5\ngini = 0.0126\nsamples = 316\nvalue = [314, 2]"] ;
493 -> 495 ;
496 [label="X[4] <= 0.5\ngini = 0.0689\nsamples = 28\nvalue = [27, 1]"] ;
495 -> 496 ;
497 [label="gini = 0.0\nsamples = 17\nvalue = [17, 0]"] ;
496 -> 497 ;
498 [label="X[32] <= 1.5\ngini = 0.1653\nsamples = 11\nvalue = [10, 1]"] ;
496 -> 498 ;
499 [label="X[24] <= 1745.915\ngini = 0.375\nsamples = 4\nvalue = [3, 1]"] ;
498 -> 499 ;
500 [label="gini = 0.0\nsamples = 2\nvalue = [2, 0]"] ;
499 -> 500 ;
501 [label="X[24] <= 1926.1951\ngini = 0.5\nsamples = 2\nvalue = [1, 1]"] ;
499 -> 501 ;
502 [label="gini = 0.0\nsamples = 1\nvalue = [0, 1]"] ;
501 -> 502 ;
503 [label="gini = 0.0\nsamples = 1\nvalue = [1, 0]"] ;
501 -> 503 ;
504 [label="gini = 0.0\nsamples = 7\nvalue = [7, 0]"] ;
498 -> 504 ;
505 [label="X[24] <= 1666.2051\ngini = 0.0069\nsamples = 288\nvalue = [287, 1]"] ;
495 -> 505 ;
506 [label="X[24] <= 1663.28\ngini = 0.0169\nsamples = 117\nvalue = [116, 1]"] ;
505 -> 506 ;
507 [label="gini = 0.0\nsamples = 116\nvalue = [116, 0]"] ;
506 -> 507 ;
508 [label="gini = 0.0\nsamples = 1\nvalue = [0, 1]"] ;
506 -> 508 ;
509 [label="gini = 0.0\nsamples = 171\nvalue = [171, 0]"] ;
505 -> 509 ;
510 [label="X[24] <= 2347.75\ngini = 0.0381\nsamples = 206\nvalue = [202, 4]"] ;
492 -> 510 ;
511 [label="gini = 0.0\nsamples = 1\nvalue = [0, 1]"] ;
510 -> 511 ;
512 [label="X[37] <= 0.5\ngini = 0.0288\nsamples = 205\nvalue = [202, 3]"] ;
510 -> 512 ;
513 [label="X[0] <= 62.5\ngini = 0.0198\nsamples = 200\nvalue = [198, 2]"] ;
512 -> 513 ;
514 [label="X[0] <= 61.5\ngini = 0.0997\nsamples = 19\nvalue = [18, 1]"] ;
513 -> 514 ;
515 [label="gini = 0.0\nsamples = 14\nvalue = [14, 0]"] ;
514 -> 515 ;
516 [label="X[26] <= 1.0\ngini = 0.32\nsamples = 5\nvalue = [4, 1]"] ;
514 -> 516 ;
517 [label="X[10] <= 1.5\ngini = 0.4444\nsamples = 3\nvalue = [2, 1]"] ;
516 -> 517 ;
518 [label="X[4] <= 0.5\ngini = 0.5\nsamples = 2\nvalue = [1, 1]"] ;
517 -> 518 ;
519 [label="gini = 0.0\nsamples = 1\nvalue = [1, 0]"] ;
518 -> 519 ;
520 [label="gini = 0.0\nsamples = 1\nvalue = [0, 1]"] ;
518 -> 520 ;
521 [label="gini = 0.0\nsamples = 1\nvalue = [1, 0]"] ;
517 -> 521 ;
522 [label="gini = 0.0\nsamples = 2\nvalue = [2, 0]"] ;
516 -> 522 ;
523 [label="X[33] <= 8.0\ngini = 0.011\nsamples = 181\nvalue = [180, 1]"] ;
513 -> 523 ;
524 [label="gini = 0.0\nsamples = 162\nvalue = [162, 0]"] ;
523 -> 524 ;
525 [label="X[33] <= 11.5\ngini = 0.0997\nsamples = 19\nvalue = [18, 1]"] ;
523 -> 525 ;
526 [label="X[0] <= 76.5\ngini = 0.4444\nsamples = 3\nvalue = [2, 1]"] ;
525 -> 526 ;
527 [label="gini = 0.0\nsamples = 1\nvalue = [0, 1]"] ;
526 -> 527 ;
528 [label="gini = 0.0\nsamples = 2\nvalue = [2, 0]"] ;
526 -> 528 ;
529 [label="gini = 0.0\nsamples = 16\nvalue = [16, 0]"] ;
525 -> 529 ;
530 [label="X[24] <= 2863.4102\ngini = 0.32\nsamples = 5\nvalue = [4, 1]"] ;
512 -> 530 ;
531 [label="X[24] <= 2754.8901\ngini = 0.5\nsamples = 2\nvalue = [1, 1]"] ;
530 -> 531 ;
532 [label="gini = 0.0\nsamples = 1\nvalue = [1, 0]"] ;
531 -> 532 ;
533 [label="gini = 0.0\nsamples = 1\nvalue = [0, 1]"] ;
531 -> 533 ;
534 [label="gini = 0.0\nsamples = 3\nvalue = [3, 0]"] ;
530 -> 534 ;
535 [label="X[0] <= 62.0\ngini = 0.1049\nsamples = 18\nvalue = [17, 1]"] ;
491 -> 535 ;
536 [label="X[27] <= 0.5\ngini = 0.5\nsamples = 2\nvalue = [1, 1]"] ;
535 -> 536 ;
537 [label="gini = 0.0\nsamples = 1\nvalue = [0, 1]"] ;
536 -> 537 ;
538 [label="gini = 0.0\nsamples = 1\nvalue = [1, 0]"] ;
536 -> 538 ;
539 [label="gini = 0.0\nsamples = 16\nvalue = [16, 0]"] ;
535 -> 539 ;
540 [label="X[24] <= 4030.2949\ngini = 0.1107\nsamples = 17\nvalue = [16, 1]"] ;
454 -> 540 ;
541 [label="gini = 0.0\nsamples = 1\nvalue = [0, 1]"] ;
540 -> 541 ;
542 [label="gini = 0.0\nsamples = 16\nvalue = [16, 0]"] ;
540 -> 542 ;
543 [label="X[1] <= 0.5\ngini = 0.0832\nsamples = 46\nvalue = [44, 2]"] ;
453 -> 543 ;
544 [label="X[39] <= 14.5\ngini = 0.2311\nsamples = 15\nvalue = [13, 2]"] ;
543 -> 544 ;
545 [label="X[0] <= 66.5\ngini = 0.4082\nsamples = 7\nvalue = [5, 2]"] ;
544 -> 545 ;
546 [label="X[24] <= 1380.965\ngini = 0.2778\nsamples = 6\nvalue = [5, 1]"] ;
545 -> 546 ;
547 [label="X[26] <= 1.0\ngini = 0.5\nsamples = 2\nvalue = [1, 1]"] ;
546 -> 547 ;
548 [label="gini = 0.0\nsamples = 1\nvalue = [1, 0]"] ;
547 -> 548 ;
549 [label="gini = 0.0\nsamples = 1\nvalue = [0, 1]"] ;
547 -> 549 ;
550 [label="gini = 0.0\nsamples = 4\nvalue = [4, 0]"] ;
546 -> 550 ;
551 [label="gini = 0.0\nsamples = 1\nvalue = [0, 1]"] ;
545 -> 551 ;
552 [label="gini = 0.0\nsamples = 8\nvalue = [8, 0]"] ;
544 -> 552 ;
553 [label="gini = 0.0\nsamples = 31\nvalue = [31, 0]"] ;
543 -> 553 ;
554 [label="X[18] <= 1.5\ngini = 0.0544\nsamples = 536\nvalue = [521, 15]"] ;
452 -> 554 ;
555 [label="X[37] <= 1.5\ngini = 0.0487\nsamples = 521\nvalue = [508, 13]"] ;
554 -> 555 ;
556 [label="X[24] <= 1976.54\ngini = 0.0455\nsamples = 515\nvalue = [503, 12]"] ;
555 -> 556 ;
557 [label="X[24] <= 1975.0549\ngini = 0.0655\nsamples = 354\nvalue = [342, 12]"] ;
556 -> 557 ;
558 [label="X[25] <= 6.5\ngini = 0.0604\nsamples = 353\nvalue = [342, 11]"] ;
557 -> 558 ;
559 [label="X[22] <= 18.0\ngini = 0.0557\nsamples = 349\nvalue = [339, 10]"] ;
558 -> 559 ;
560 [label="X[24] <= 1954.51\ngini = 0.0469\nsamples = 333\nvalue = [325, 8]"] ;
559 -> 560 ;
561 [label="X[0] <= 84.5\ngini = 0.0418\nsamples = 328\nvalue = [321, 7]"] ;
560 -> 561 ;
562 [label="X[24] <= 1639.3101\ngini = 0.0271\nsamples = 291\nvalue = [287, 4]"] ;
561 -> 562 ;
563 [label="X[24] <= 436.8\ngini = 0.009\nsamples = 222\nvalue = [221, 1]"] ;
562 -> 563 ;
564 [label="X[24] <= 426.685\ngini = 0.095\nsamples = 20\nvalue = [19, 1]"] ;
563 -> 564 ;
565 [label="gini = 0.0\nsamples = 18\nvalue = [18, 0]"] ;
564 -> 565 ;
566 [label="X[7] <= 1.0\ngini = 0.5\nsamples = 2\nvalue = [1, 1]"] ;
564 -> 566 ;
567 [label="gini = 0.0\nsamples = 1\nvalue = [1, 0]"] ;
566 -> 567 ;
568 [label="gini = 0.0\nsamples = 1\nvalue = [0, 1]"] ;
566 -> 568 ;
569 [label="gini = 0.0\nsamples = 202\nvalue = [202, 0]"] ;
563 -> 569 ;
570 [label="X[24] <= 1640.125\ngini = 0.0832\nsamples = 69\nvalue = [66, 3]"] ;
562 -> 570 ;
571 [label="gini = 0.0\nsamples = 1\nvalue = [0, 1]"] ;
570 -> 571 ;
572 [label="X[37] <= 0.5\ngini = 0.0571\nsamples = 68\nvalue = [66, 2]"] ;
570 -> 572 ;
573 [label="X[0] <= 55.5\ngini = 0.0317\nsamples = 62\nvalue = [61, 1]"] ;
572 -> 573 ;
574 [label="X[0] <= 54.0\ngini = 0.2188\nsamples = 8\nvalue = [7, 1]"] ;
573 -> 574 ;
575 [label="gini = 0.0\nsamples = 6\nvalue = [6, 0]"] ;
574 -> 575 ;
576 [label="X[30] <= 1.5\ngini = 0.5\nsamples = 2\nvalue = [1, 1]"] ;
574 -> 576 ;
577 [label="gini = 0.0\nsamples = 1\nvalue = [0, 1]"] ;
576 -> 577 ;
578 [label="gini = 0.0\nsamples = 1\nvalue = [1, 0]"] ;
576 -> 578 ;
579 [label="gini = 0.0\nsamples = 54\nvalue = [54, 0]"] ;
573 -> 579 ;
580 [label="X[0] <= 75.5\ngini = 0.2778\nsamples = 6\nvalue = [5, 1]"] ;
572 -> 580 ;
581 [label="X[0] <= 74.0\ngini = 0.4444\nsamples = 3\nvalue = [2, 1]"] ;
580 -> 581 ;
582 [label="gini = 0.0\nsamples = 2\nvalue = [2, 0]"] ;
581 -> 582 ;
583 [label="gini = 0.0\nsamples = 1\nvalue = [0, 1]"] ;
581 -> 583 ;
584 [label="gini = 0.0\nsamples = 3\nvalue = [3, 0]"] ;
580 -> 584 ;
585 [label="X[24] <= 813.315\ngini = 0.149\nsamples = 37\nvalue = [34, 3]"] ;
561 -> 585 ;
586 [label="X[4] <= 0.5\ngini = 0.5\nsamples = 2\nvalue = [1, 1]"] ;
585 -> 586 ;
587 [label="gini = 0.0\nsamples = 1\nvalue = [0, 1]"] ;
586 -> 587 ;
588 [label="gini = 0.0\nsamples = 1\nvalue = [1, 0]"] ;
586 -> 588 ;
589 [label="X[15] <= 0.5\ngini = 0.1078\nsamples = 35\nvalue = [33, 2]"] ;
585 -> 589 ;
590 [label="X[33] <= 3.0\ngini = 0.1975\nsamples = 18\nvalue = [16, 2]"] ;
589 -> 590 ;
591 [label="X[32] <= 1.5\ngini = 0.2975\nsamples = 11\nvalue = [9, 2]"] ;
590 -> 591 ;
592 [label="X[0] <= 87.0\ngini = 0.1975\nsamples = 9\nvalue = [8, 1]"] ;
591 -> 592 ;
593 [label="gini = 0.0\nsamples = 5\nvalue = [5, 0]"] ;
592 -> 593 ;
594 [label="X[24] <= 1631.4851\ngini = 0.375\nsamples = 4\nvalue = [3, 1]"] ;
592 -> 594 ;
595 [label="gini = 0.0\nsamples = 2\nvalue = [2, 0]"] ;
594 -> 595 ;
596 [label="X[24] <= 1749.525\ngini = 0.5\nsamples = 2\nvalue = [1, 1]"] ;
594 -> 596 ;
597 [label="gini = 0.0\nsamples = 1\nvalue = [0, 1]"] ;
596 -> 597 ;
598 [label="gini = 0.0\nsamples = 1\nvalue = [1, 0]"] ;
596 -> 598 ;
599 [label="X[0] <= 86.0\ngini = 0.5\nsamples = 2\nvalue = [1, 1]"] ;
591 -> 599 ;
600 [label="gini = 0.0\nsamples = 1\nvalue = [0, 1]"] ;
599 -> 600 ;
601 [label="gini = 0.0\nsamples = 1\nvalue = [1, 0]"] ;
599 -> 601 ;
602 [label="gini = 0.0\nsamples = 7\nvalue = [7, 0]"] ;
590 -> 602 ;
603 [label="gini = 0.0\nsamples = 17\nvalue = [17, 0]"] ;
589 -> 603 ;
604 [label="X[24] <= 1957.4199\ngini = 0.32\nsamples = 5\nvalue = [4, 1]"] ;
560 -> 604 ;
605 [label="gini = 0.0\nsamples = 1\nvalue = [0, 1]"] ;
604 -> 605 ;
606 [label="gini = 0.0\nsamples = 4\nvalue = [4, 0]"] ;
604 -> 606 ;
607 [label="X[24] <= 447.64\ngini = 0.2188\nsamples = 16\nvalue = [14, 2]"] ;
559 -> 607 ;
608 [label="gini = 0.0\nsamples = 1\nvalue = [0, 1]"] ;
607 -> 608 ;
609 [label="X[32] <= 23.5\ngini = 0.1244\nsamples = 15\nvalue = [14, 1]"] ;
607 -> 609 ;
610 [label="gini = 0.0\nsamples = 13\nvalue = [13, 0]"] ;
609 -> 610 ;
611 [label="X[33] <= 23.5\ngini = 0.5\nsamples = 2\nvalue = [1, 1]"] ;
609 -> 611 ;
612 [label="gini = 0.0\nsamples = 1\nvalue = [0, 1]"] ;
611 -> 612 ;
613 [label="gini = 0.0\nsamples = 1\nvalue = [1, 0]"] ;
611 -> 613 ;
614 [label="X[2] <= 2.0\ngini = 0.375\nsamples = 4\nvalue = [3, 1]"] ;
558 -> 614 ;
615 [label="gini = 0.0\nsamples = 1\nvalue = [0, 1]"] ;
614 -> 615 ;
616 [label="gini = 0.0\nsamples = 3\nvalue = [3, 0]"] ;
614 -> 616 ;
617 [label="gini = 0.0\nsamples = 1\nvalue = [0, 1]"] ;
557 -> 617 ;
618 [label="gini = 0.0\nsamples = 161\nvalue = [161, 0]"] ;
556 -> 618 ;
619 [label="X[24] <= 2162.5801\ngini = 0.2778\nsamples = 6\nvalue = [5, 1]"] ;
555 -> 619 ;
620 [label="gini = 0.0\nsamples = 5\nvalue = [5, 0]"] ;
619 -> 620 ;
621 [label="gini = 0.0\nsamples = 1\nvalue = [0, 1]"] ;
619 -> 621 ;
622 [label="X[11] <= 2.0\ngini = 0.2311\nsamples = 15\nvalue = [13, 2]"] ;
554 -> 622 ;
623 [label="X[0] <= 59.5\ngini = 0.1327\nsamples = 14\nvalue = [13, 1]"] ;
622 -> 623 ;
624 [label="X[7] <= 1.5\ngini = 0.4444\nsamples = 3\nvalue = [2, 1]"] ;
623 -> 624 ;
625 [label="gini = 0.0\nsamples = 2\nvalue = [2, 0]"] ;
624 -> 625 ;
626 [label="gini = 0.0\nsamples = 1\nvalue = [0, 1]"] ;
624 -> 626 ;
627 [label="gini = 0.0\nsamples = 11\nvalue = [11, 0]"] ;
623 -> 627 ;
628 [label="gini = 0.0\nsamples = 1\nvalue = [0, 1]"] ;
622 -> 628 ;
629 [label="X[2] <= 43.5\ngini = 0.1172\nsamples = 64\nvalue = [60, 4]"] ;
451 -> 629 ;
630 [label="X[24] <= 912.535\ngini = 0.0907\nsamples = 63\nvalue = [60, 3]"] ;
629 -> 630 ;
631 [label="X[2] <= 27.5\ngini = 0.3457\nsamples = 9\nvalue = [7, 2]"] ;
630 -> 631 ;
632 [label="gini = 0.0\nsamples = 6\nvalue = [6, 0]"] ;
631 -> 632 ;
633 [label="X[25] <= 1.5\ngini = 0.4444\nsamples = 3\nvalue = [1, 2]"] ;
631 -> 633 ;
634 [label="gini = 0.0\nsamples = 2\nvalue = [0, 2]"] ;
633 -> 634 ;
635 [label="gini = 0.0\nsamples = 1\nvalue = [1, 0]"] ;
633 -> 635 ;
636 [label="X[32] <= 1.5\ngini = 0.0364\nsamples = 54\nvalue = [53, 1]"] ;
630 -> 636 ;
637 [label="gini = 0.0\nsamples = 46\nvalue = [46, 0]"] ;
636 -> 637 ;
638 [label="X[25] <= 0.5\ngini = 0.2188\nsamples = 8\nvalue = [7, 1]"] ;
636 -> 638 ;
639 [label="X[34] <= 1.0\ngini = 0.5\nsamples = 2\nvalue = [1, 1]"] ;
638 -> 639 ;
640 [label="gini = 0.0\nsamples = 1\nvalue = [0, 1]"] ;
639 -> 640 ;
641 [label="gini = 0.0\nsamples = 1\nvalue = [1, 0]"] ;
639 -> 641 ;
642 [label="gini = 0.0\nsamples = 6\nvalue = [6, 0]"] ;
638 -> 642 ;
643 [label="gini = 0.0\nsamples = 1\nvalue = [0, 1]"] ;
629 -> 643 ;
644 [label="X[17] <= 1583.0\ngini = 0.1567\nsamples = 35\nvalue = [32, 3]"] ;
450 -> 644 ;
645 [label="X[0] <= 52.5\ngini = 0.4444\nsamples = 3\nvalue = [1, 2]"] ;
644 -> 645 ;
646 [label="gini = 0.0\nsamples = 1\nvalue = [1, 0]"] ;
645 -> 646 ;
647 [label="gini = 0.0\nsamples = 2\nvalue = [0, 2]"] ;
645 -> 647 ;
648 [label="X[37] <= 0.5\ngini = 0.0605\nsamples = 32\nvalue = [31, 1]"] ;
644 -> 648 ;
649 [label="gini = 0.0\nsamples = 30\nvalue = [30, 0]"] ;
648 -> 649 ;
650 [label="X[0] <= 57.0\ngini = 0.5\nsamples = 2\nvalue = [1, 1]"] ;
648 -> 650 ;
651 [label="gini = 0.0\nsamples = 1\nvalue = [0, 1]"] ;
650 -> 651 ;
652 [label="gini = 0.0\nsamples = 1\nvalue = [1, 0]"] ;
650 -> 652 ;
653 [label="X[24] <= 3321.1299\ngini = 0.0815\nsamples = 1315\nvalue = [1259, 56]"] ;
251 -> 653 ;
654 [label="X[0] <= 48.5\ngini = 0.0722\nsamples = 1226\nvalue = [1180, 46]"] ;
653 -> 654 ;
655 [label="gini = 0.0\nsamples = 204\nvalue = [204, 0]"] ;
654 -> 655 ;
656 [label="X[15] <= 5.5\ngini = 0.086\nsamples = 1022\nvalue = [976, 46]"] ;
654 -> 656 ;
657 [label="X[32] <= 12.0\ngini = 0.0843\nsamples = 1020\nvalue = [975, 45]"] ;
656 -> 657 ;
658 [label="X[37] <= 0.5\ngini = 0.0711\nsamples = 894\nvalue = [861, 33]"] ;
657 -> 658 ;
659 [label="X[24] <= 293.825\ngini = 0.0623\nsamples = 839\nvalue = [812, 27]"] ;
658 -> 659 ;
660 [label="X[15] <= 0.5\ngini = 0.32\nsamples = 10\nvalue = [8, 2]"] ;
659 -> 660 ;
661 [label="X[12] <= 0.5\ngini = 0.4444\nsamples = 3\nvalue = [1, 2]"] ;
660 -> 661 ;
662 [label="gini = 0.0\nsamples = 2\nvalue = [0, 2]"] ;
661 -> 662 ;
663 [label="gini = 0.0\nsamples = 1\nvalue = [1, 0]"] ;
661 -> 663 ;
664 [label="gini = 0.0\nsamples = 7\nvalue = [7, 0]"] ;
660 -> 664 ;
665 [label="X[8] <= 20.5\ngini = 0.0585\nsamples = 829\nvalue = [804, 25]"] ;
659 -> 665 ;
666 [label="X[24] <= 2158.0701\ngini = 0.0566\nsamples = 823\nvalue = [799, 24]"] ;
665 -> 666 ;
667 [label="X[24] <= 2155.135\ngini = 0.0701\nsamples = 632\nvalue = [609, 23]"] ;
666 -> 667 ;
668 [label="X[19] <= 1.5\ngini = 0.0673\nsamples = 631\nvalue = [609, 22]"] ;
667 -> 668 ;
669 [label="X[4] <= 4.5\ngini = 0.2449\nsamples = 14\nvalue = [12, 2]"] ;
668 -> 669 ;
670 [label="gini = 0.0\nsamples = 8\nvalue = [8, 0]"] ;
669 -> 670 ;
671 [label="X[24] <= 1296.5801\ngini = 0.4444\nsamples = 6\nvalue = [4, 2]"] ;
669 -> 671 ;
672 [label="X[34] <= 5.0\ngini = 0.4444\nsamples = 3\nvalue = [1, 2]"] ;
671 -> 672 ;
673 [label="gini = 0.0\nsamples = 1\nvalue = [0, 1]"] ;
672 -> 673 ;
674 [label="X[40] <= 94.5\ngini = 0.5\nsamples = 2\nvalue = [1, 1]"] ;
672 -> 674 ;
675 [label="gini = 0.0\nsamples = 1\nvalue = [0, 1]"] ;
674 -> 675 ;
676 [label="gini = 0.0\nsamples = 1\nvalue = [1, 0]"] ;
674 -> 676 ;
677 [label="gini = 0.0\nsamples = 3\nvalue = [3, 0]"] ;
671 -> 677 ;
678 [label="X[24] <= 1308.915\ngini = 0.0627\nsamples = 617\nvalue = [597, 20]"] ;
668 -> 678 ;
679 [label="X[24] <= 835.95\ngini = 0.0296\nsamples = 266\nvalue = [262, 4]"] ;
678 -> 679 ;
680 [label="X[24] <= 834.185\ngini = 0.0713\nsamples = 108\nvalue = [104, 4]"] ;
679 -> 680 ;
681 [label="X[0] <= 89.0\ngini = 0.0545\nsamples = 107\nvalue = [104, 3]"] ;
680 -> 681 ;
682 [label="X[24] <= 815.455\ngini = 0.0388\nsamples = 101\nvalue = [99, 2]"] ;
681 -> 682 ;
683 [label="X[19] <= 4.5\ngini = 0.0208\nsamples = 95\nvalue = [94, 1]"] ;
682 -> 683 ;
684 [label="gini = 0.0\nsamples = 88\nvalue = [88, 0]"] ;
683 -> 684 ;
685 [label="X[29] <= 1.0\ngini = 0.2449\nsamples = 7\nvalue = [6, 1]"] ;
683 -> 685 ;
686 [label="gini = 0.0\nsamples = 5\nvalue = [5, 0]"] ;
685 -> 686 ;
687 [label="X[24] <= 632.2\ngini = 0.5\nsamples = 2\nvalue = [1, 1]"] ;
685 -> 687 ;
688 [label="gini = 0.0\nsamples = 1\nvalue = [0, 1]"] ;
687 -> 688 ;
689 [label="gini = 0.0\nsamples = 1\nvalue = [1, 0]"] ;
687 -> 689 ;
690 [label="X[24] <= 820.28\ngini = 0.2778\nsamples = 6\nvalue = [5, 1]"] ;
682 -> 690 ;
691 [label="gini = 0.0\nsamples = 1\nvalue = [0, 1]"] ;
690 -> 691 ;
692 [label="gini = 0.0\nsamples = 5\nvalue = [5, 0]"] ;
690 -> 692 ;
693 [label="X[24] <= 549.4449\ngini = 0.2778\nsamples = 6\nvalue = [5, 1]"] ;
681 -> 693 ;
694 [label="gini = 0.0\nsamples = 4\nvalue = [4, 0]"] ;
693 -> 694 ;
695 [label="X[12] <= 0.5\ngini = 0.5\nsamples = 2\nvalue = [1, 1]"] ;
693 -> 695 ;
696 [label="gini = 0.0\nsamples = 1\nvalue = [0, 1]"] ;
695 -> 696 ;
697 [label="gini = 0.0\nsamples = 1\nvalue = [1, 0]"] ;
695 -> 697 ;
698 [label="gini = 0.0\nsamples = 1\nvalue = [0, 1]"] ;
680 -> 698 ;
699 [label="gini = 0.0\nsamples = 158\nvalue = [158, 0]"] ;
679 -> 699 ;
700 [label="X[24] <= 1311.75\ngini = 0.087\nsamples = 351\nvalue = [335, 16]"] ;
678 -> 700 ;
701 [label="gini = 0.0\nsamples = 1\nvalue = [0, 1]"] ;
700 -> 701 ;
702 [label="X[17] <= 1621.0\ngini = 0.082\nsamples = 350\nvalue = [335, 15]"] ;
700 -> 702 ;
703 [label="X[0] <= 69.5\ngini = 0.0779\nsamples = 345\nvalue = [331, 14]"] ;
702 -> 703 ;
704 [label="X[7] <= 1.5\ngini = 0.1095\nsamples = 172\nvalue = [162, 10]"] ;
703 -> 704 ;
705 [label="X[32] <= 4.0\ngini = 0.2355\nsamples = 44\nvalue = [38, 6]"] ;
704 -> 705 ;
706 [label="X[39] <= 13.5\ngini = 0.2055\nsamples = 43\nvalue = [38, 5]"] ;
705 -> 706 ;
707 [label="X[24] <= 1661.27\ngini = 0.1761\nsamples = 41\nvalue = [37, 4]"] ;
706 -> 707 ;
708 [label="gini = 0.0\nsamples = 12\nvalue = [12, 0]"] ;
707 -> 708 ;
709 [label="X[24] <= 1691.825\ngini = 0.2378\nsamples = 29\nvalue = [25, 4]"] ;
707 -> 709 ;
710 [label="gini = 0.0\nsamples = 1\nvalue = [0, 1]"] ;
709 -> 710 ;
711 [label="X[39] <= 1.0\ngini = 0.1913\nsamples = 28\nvalue = [25, 3]"] ;
709 -> 711 ;
712 [label="X[24] <= 1922.1899\ngini = 0.255\nsamples = 20\nvalue = [17, 3]"] ;
711 -> 712 ;
713 [label="X[27] <= 1.0\ngini = 0.1327\nsamples = 14\nvalue = [13, 1]"] ;
712 -> 713 ;
714 [label="X[7] <= 0.5\ngini = 0.375\nsamples = 4\nvalue = [3, 1]"] ;
713 -> 714 ;
715 [label="gini = 0.0\nsamples = 1\nvalue = [0, 1]"] ;
714 -> 715 ;
716 [label="gini = 0.0\nsamples = 3\nvalue = [3, 0]"] ;
714 -> 716 ;
717 [label="gini = 0.0\nsamples = 10\nvalue = [10, 0]"] ;
713 -> 717 ;
718 [label="X[24] <= 2019.62\ngini = 0.4444\nsamples = 6\nvalue = [4, 2]"] ;
712 -> 718 ;
719 [label="X[22] <= 3.5\ngini = 0.4444\nsamples = 3\nvalue = [1, 2]"] ;
718 -> 719 ;
720 [label="gini = 0.0\nsamples = 1\nvalue = [1, 0]"] ;
719 -> 720 ;
721 [label="gini = 0.0\nsamples = 2\nvalue = [0, 2]"] ;
719 -> 721 ;
722 [label="gini = 0.0\nsamples = 3\nvalue = [3, 0]"] ;
718 -> 722 ;
723 [label="gini = 0.0\nsamples = 8\nvalue = [8, 0]"] ;
711 -> 723 ;
724 [label="X[28] <= 1.0\ngini = 0.5\nsamples = 2\nvalue = [1, 1]"] ;
706 -> 724 ;
725 [label="gini = 0.0\nsamples = 1\nvalue = [0, 1]"] ;
724 -> 725 ;
726 [label="gini = 0.0\nsamples = 1\nvalue = [1, 0]"] ;
724 -> 726 ;
727 [label="gini = 0.0\nsamples = 1\nvalue = [0, 1]"] ;
705 -> 727 ;
728 [label="X[24] <= 2140.865\ngini = 0.0605\nsamples = 128\nvalue = [124, 4]"] ;
704 -> 728 ;
729 [label="X[11] <= 3.5\ngini = 0.0465\nsamples = 126\nvalue = [123, 3]"] ;
728 -> 729 ;
730 [label="X[24] <= 1444.04\ngini = 0.032\nsamples = 123\nvalue = [121, 2]"] ;
729 -> 730 ;
731 [label="X[24] <= 1443.8401\ngini = 0.1588\nsamples = 23\nvalue = [21, 2]"] ;
730 -> 731 ;
732 [label="X[24] <= 1393.625\ngini = 0.0868\nsamples = 22\nvalue = [21, 1]"] ;
731 -> 732 ;
733 [label="gini = 0.0\nsamples = 15\nvalue = [15, 0]"] ;
732 -> 733 ;
734 [label="X[24] <= 1400.725\ngini = 0.2449\nsamples = 7\nvalue = [6, 1]"] ;
732 -> 734 ;
735 [label="gini = 0.0\nsamples = 1\nvalue = [0, 1]"] ;
734 -> 735 ;
736 [label="gini = 0.0\nsamples = 6\nvalue = [6, 0]"] ;
734 -> 736 ;
737 [label="gini = 0.0\nsamples = 1\nvalue = [0, 1]"] ;
731 -> 737 ;
738 [label="gini = 0.0\nsamples = 100\nvalue = [100, 0]"] ;
730 -> 738 ;
739 [label="X[33] <= 4.0\ngini = 0.4444\nsamples = 3\nvalue = [2, 1]"] ;
729 -> 739 ;
740 [label="gini = 0.0\nsamples = 1\nvalue = [0, 1]"] ;
739 -> 740 ;
741 [label="gini = 0.0\nsamples = 2\nvalue = [2, 0]"] ;
739 -> 741 ;
742 [label="X[0] <= 62.0\ngini = 0.5\nsamples = 2\nvalue = [1, 1]"] ;
728 -> 742 ;
743 [label="gini = 0.0\nsamples = 1\nvalue = [1, 0]"] ;
742 -> 743 ;
744 [label="gini = 0.0\nsamples = 1\nvalue = [0, 1]"] ;
742 -> 744 ;
745 [label="X[30] <= 5.5\ngini = 0.0452\nsamples = 173\nvalue = [169, 4]"] ;
703 -> 745 ;
746 [label="X[18] <= 8.5\ngini = 0.0351\nsamples = 168\nvalue = [165, 3]"] ;
745 -> 746 ;
747 [label="X[28] <= 1.5\ngini = 0.0244\nsamples = 162\nvalue = [160, 2]"] ;
746 -> 747 ;
748 [label="gini = 0.0\nsamples = 89\nvalue = [89, 0]"] ;
747 -> 748 ;
749 [label="X[24] <= 1666.39\ngini = 0.0533\nsamples = 73\nvalue = [71, 2]"] ;
747 -> 749 ;
750 [label="X[24] <= 1662.05\ngini = 0.1078\nsamples = 35\nvalue = [33, 2]"] ;
749 -> 750 ;
751 [label="X[0] <= 80.0\ngini = 0.0571\nsamples = 34\nvalue = [33, 1]"] ;
750 -> 751 ;
752 [label="gini = 0.0\nsamples = 24\nvalue = [24, 0]"] ;
751 -> 752 ;
753 [label="X[0] <= 83.0\ngini = 0.18\nsamples = 10\nvalue = [9, 1]"] ;
751 -> 753 ;
754 [label="X[24] <= 1568.03\ngini = 0.5\nsamples = 2\nvalue = [1, 1]"] ;
753 -> 754 ;
755 [label="gini = 0.0\nsamples = 1\nvalue = [0, 1]"] ;
754 -> 755 ;
756 [label="gini = 0.0\nsamples = 1\nvalue = [1, 0]"] ;
754 -> 756 ;
757 [label="gini = 0.0\nsamples = 8\nvalue = [8, 0]"] ;
753 -> 757 ;
758 [label="gini = 0.0\nsamples = 1\nvalue = [0, 1]"] ;
750 -> 758 ;
759 [label="gini = 0.0\nsamples = 38\nvalue = [38, 0]"] ;
749 -> 759 ;
760 [label="X[19] <= 4.0\ngini = 0.2778\nsamples = 6\nvalue = [5, 1]"] ;
746 -> 760 ;
761 [label="gini = 0.0\nsamples = 5\nvalue = [5, 0]"] ;
760 -> 761 ;
762 [label="gini = 0.0\nsamples = 1\nvalue = [0, 1]"] ;
760 -> 762 ;
763 [label="X[0] <= 75.0\ngini = 0.32\nsamples = 5\nvalue = [4, 1]"] ;
745 -> 763 ;
764 [label="gini = 0.0\nsamples = 4\nvalue = [4, 0]"] ;
763 -> 764 ;
765 [label="gini = 0.0\nsamples = 1\nvalue = [0, 1]"] ;
763 -> 765 ;
766 [label="X[17] <= 1656.0\ngini = 0.32\nsamples = 5\nvalue = [4, 1]"] ;
702 -> 766 ;
767 [label="gini = 0.0\nsamples = 1\nvalue = [0, 1]"] ;
766 -> 767 ;
768 [label="gini = 0.0\nsamples = 4\nvalue = [4, 0]"] ;
766 -> 768 ;
769 [label="gini = 0.0\nsamples = 1\nvalue = [0, 1]"] ;
667 -> 769 ;
770 [label="X[25] <= 4.0\ngini = 0.0104\nsamples = 191\nvalue = [190, 1]"] ;
666 -> 770 ;
771 [label="gini = 0.0\nsamples = 190\nvalue = [190, 0]"] ;
770 -> 771 ;
772 [label="gini = 0.0\nsamples = 1\nvalue = [0, 1]"] ;
770 -> 772 ;
773 [label="X[0] <= 60.5\ngini = 0.2778\nsamples = 6\nvalue = [5, 1]"] ;
665 -> 773 ;
774 [label="gini = 0.0\nsamples = 1\nvalue = [0, 1]"] ;
773 -> 774 ;
775 [label="gini = 0.0\nsamples = 5\nvalue = [5, 0]"] ;
773 -> 775 ;
776 [label="X[24] <= 1927.145\ngini = 0.1944\nsamples = 55\nvalue = [49, 6]"] ;
658 -> 776 ;
777 [label="X[39] <= 3.0\ngini = 0.0973\nsamples = 39\nvalue = [37, 2]"] ;
776 -> 777 ;
778 [label="X[19] <= 4.5\ngini = 0.0526\nsamples = 37\nvalue = [36, 1]"] ;
777 -> 778 ;
779 [label="gini = 0.0\nsamples = 31\nvalue = [31, 0]"] ;
778 -> 779 ;
780 [label="X[28] <= 1.0\ngini = 0.2778\nsamples = 6\nvalue = [5, 1]"] ;
778 -> 780 ;
781 [label="gini = 0.0\nsamples = 5\nvalue = [5, 0]"] ;
780 -> 781 ;
782 [label="gini = 0.0\nsamples = 1\nvalue = [0, 1]"] ;
780 -> 782 ;
783 [label="X[24] <= 1246.9751\ngini = 0.5\nsamples = 2\nvalue = [1, 1]"] ;
777 -> 783 ;
784 [label="gini = 0.0\nsamples = 1\nvalue = [1, 0]"] ;
783 -> 784 ;
785 [label="gini = 0.0\nsamples = 1\nvalue = [0, 1]"] ;
783 -> 785 ;
786 [label="X[0] <= 65.0\ngini = 0.375\nsamples = 16\nvalue = [12, 4]"] ;
776 -> 786 ;
787 [label="gini = 0.0\nsamples = 8\nvalue = [8, 0]"] ;
786 -> 787 ;
788 [label="X[24] <= 2230.855\ngini = 0.5\nsamples = 8\nvalue = [4, 4]"] ;
786 -> 788 ;
789 [label="X[10] <= 1.5\ngini = 0.32\nsamples = 5\nvalue = [1, 4]"] ;
788 -> 789 ;
790 [label="gini = 0.0\nsamples = 4\nvalue = [0, 4]"] ;
789 -> 790 ;
791 [label="gini = 0.0\nsamples = 1\nvalue = [1, 0]"] ;
789 -> 791 ;
792 [label="gini = 0.0\nsamples = 3\nvalue = [3, 0]"] ;
788 -> 792 ;
793 [label="X[21] <= 21.5\ngini = 0.1723\nsamples = 126\nvalue = [114, 12]"] ;
657 -> 793 ;
794 [label="X[10] <= 3.5\ngini = 0.1605\nsamples = 125\nvalue = [114, 11]"] ;
793 -> 794 ;
795 [label="X[16] <= 4364.5\ngini = 0.1483\nsamples = 124\nvalue = [114, 10]"] ;
794 -> 795 ;
796 [label="X[32] <= 13.5\ngini = 0.1356\nsamples = 123\nvalue = [114, 9]"] ;
795 -> 796 ;
797 [label="X[7] <= 2.5\ngini = 0.3911\nsamples = 15\nvalue = [11, 4]"] ;
796 -> 797 ;
798 [label="gini = 0.0\nsamples = 8\nvalue = [8, 0]"] ;
797 -> 798 ;
799 [label="X[24] <= 1595.2649\ngini = 0.4898\nsamples = 7\nvalue = [3, 4]"] ;
797 -> 799 ;
800 [label="gini = 0.0\nsamples = 3\nvalue = [0, 3]"] ;
799 -> 800 ;
801 [label="X[24] <= 2679.1699\ngini = 0.375\nsamples = 4\nvalue = [3, 1]"] ;
799 -> 801 ;
802 [label="gini = 0.0\nsamples = 3\nvalue = [3, 0]"] ;
801 -> 802 ;
803 [label="gini = 0.0\nsamples = 1\nvalue = [0, 1]"] ;
801 -> 803 ;
804 [label="X[19] <= 3.5\ngini = 0.0883\nsamples = 108\nvalue = [103, 5]"] ;
796 -> 804 ;
805 [label="gini = 0.0\nsamples = 69\nvalue = [69, 0]"] ;
804 -> 805 ;
806 [label="X[2] <= 30.5\ngini = 0.2235\nsamples = 39\nvalue = [34, 5]"] ;
804 -> 806 ;
807 [label="X[4] <= 4.5\ngini = 0.1884\nsamples = 38\nvalue = [34, 4]"] ;
806 -> 807 ;
808 [label="gini = 0.0\nsamples = 17\nvalue = [17, 0]"] ;
807 -> 808 ;
809 [label="X[15] <= 0.5\ngini = 0.3084\nsamples = 21\nvalue = [17, 4]"] ;
807 -> 809 ;
810 [label="X[0] <= 72.5\ngini = 0.1327\nsamples = 14\nvalue = [13, 1]"] ;
809 -> 810 ;
811 [label="X[0] <= 71.5\ngini = 0.32\nsamples = 5\nvalue = [4, 1]"] ;
810 -> 811 ;
812 [label="gini = 0.0\nsamples = 4\nvalue = [4, 0]"] ;
811 -> 812 ;
813 [label="gini = 0.0\nsamples = 1\nvalue = [0, 1]"] ;
811 -> 813 ;
814 [label="gini = 0.0\nsamples = 9\nvalue = [9, 0]"] ;
810 -> 814 ;
815 [label="X[0] <= 71.5\ngini = 0.4898\nsamples = 7\nvalue = [4, 3]"] ;
809 -> 815 ;
816 [label="gini = 0.0\nsamples = 2\nvalue = [2, 0]"] ;
815 -> 816 ;
817 [label="X[0] <= 75.5\ngini = 0.48\nsamples = 5\nvalue = [2, 3]"] ;
815 -> 817 ;
818 [label="gini = 0.0\nsamples = 2\nvalue = [0, 2]"] ;
817 -> 818 ;
819 [label="X[32] <= 18.0\ngini = 0.4444\nsamples = 3\nvalue = [2, 1]"] ;
817 -> 819 ;
820 [label="gini = 0.0\nsamples = 1\nvalue = [1, 0]"] ;
819 -> 820 ;
821 [label="X[33] <= 28.5\ngini = 0.5\nsamples = 2\nvalue = [1, 1]"] ;
819 -> 821 ;
822 [label="gini = 0.0\nsamples = 1\nvalue = [0, 1]"] ;
821 -> 822 ;
823 [label="gini = 0.0\nsamples = 1\nvalue = [1, 0]"] ;
821 -> 823 ;
824 [label="gini = 0.0\nsamples = 1\nvalue = [0, 1]"] ;
806 -> 824 ;
825 [label="gini = 0.0\nsamples = 1\nvalue = [0, 1]"] ;
795 -> 825 ;
826 [label="gini = 0.0\nsamples = 1\nvalue = [0, 1]"] ;
794 -> 826 ;
827 [label="gini = 0.0\nsamples = 1\nvalue = [0, 1]"] ;
793 -> 827 ;
828 [label="X[1] <= 1.5\ngini = 0.5\nsamples = 2\nvalue = [1, 1]"] ;
656 -> 828 ;
829 [label="gini = 0.0\nsamples = 1\nvalue = [0, 1]"] ;
828 -> 829 ;
830 [label="gini = 0.0\nsamples = 1\nvalue = [1, 0]"] ;
828 -> 830 ;
831 [label="X[24] <= 3362.8901\ngini = 0.1995\nsamples = 89\nvalue = [79, 10]"] ;
653 -> 831 ;
832 [label="X[20] <= 2.0\ngini = 0.4444\nsamples = 3\nvalue = [1, 2]"] ;
831 -> 832 ;
833 [label="gini = 0.0\nsamples = 2\nvalue = [0, 2]"] ;
832 -> 833 ;
834 [label="gini = 0.0\nsamples = 1\nvalue = [1, 0]"] ;
832 -> 834 ;
835 [label="X[10] <= 3.5\ngini = 0.1687\nsamples = 86\nvalue = [78, 8]"] ;
831 -> 835 ;
836 [label="X[0] <= 59.5\ngini = 0.1511\nsamples = 85\nvalue = [78, 7]"] ;
835 -> 836 ;
837 [label="X[34] <= 1.5\ngini = 0.3122\nsamples = 31\nvalue = [25, 6]"] ;
836 -> 837 ;
838 [label="X[37] <= 0.5\ngini = 0.2778\nsamples = 30\nvalue = [25, 5]"] ;
837 -> 838 ;
839 [label="X[1] <= 1.5\ngini = 0.2378\nsamples = 29\nvalue = [25, 4]"] ;
838 -> 839 ;
840 [label="X[3] <= 8.5\ngini = 0.3324\nsamples = 19\nvalue = [15, 4]"] ;
839 -> 840 ;
841 [label="X[7] <= 3.5\ngini = 0.2778\nsamples = 18\nvalue = [15, 3]"] ;
840 -> 841 ;
842 [label="X[24] <= 3662.6299\ngini = 0.2188\nsamples = 16\nvalue = [14, 2]"] ;
841 -> 842 ;
843 [label="X[24] <= 3567.335\ngini = 0.4082\nsamples = 7\nvalue = [5, 2]"] ;
842 -> 843 ;
844 [label="X[28] <= 1.0\ngini = 0.2778\nsamples = 6\nvalue = [5, 1]"] ;
843 -> 844 ;
845 [label="X[24] <= 3416.0952\ngini = 0.5\nsamples = 2\nvalue = [1, 1]"] ;
844 -> 845 ;
846 [label="gini = 0.0\nsamples = 1\nvalue = [1, 0]"] ;
845 -> 846 ;
847 [label="gini = 0.0\nsamples = 1\nvalue = [0, 1]"] ;
845 -> 847 ;
848 [label="gini = 0.0\nsamples = 4\nvalue = [4, 0]"] ;
844 -> 848 ;
849 [label="gini = 0.0\nsamples = 1\nvalue = [0, 1]"] ;
843 -> 849 ;
850 [label="gini = 0.0\nsamples = 9\nvalue = [9, 0]"] ;
842 -> 850 ;
851 [label="X[18] <= 2.5\ngini = 0.5\nsamples = 2\nvalue = [1, 1]"] ;
841 -> 851 ;
852 [label="gini = 0.0\nsamples = 1\nvalue = [0, 1]"] ;
851 -> 852 ;
853 [label="gini = 0.0\nsamples = 1\nvalue = [1, 0]"] ;
851 -> 853 ;
854 [label="gini = 0.0\nsamples = 1\nvalue = [0, 1]"] ;
840 -> 854 ;
855 [label="gini = 0.0\nsamples = 10\nvalue = [10, 0]"] ;
839 -> 855 ;
856 [label="gini = 0.0\nsamples = 1\nvalue = [0, 1]"] ;
838 -> 856 ;
857 [label="gini = 0.0\nsamples = 1\nvalue = [0, 1]"] ;
837 -> 857 ;
858 [label="X[7] <= 0.5\ngini = 0.0364\nsamples = 54\nvalue = [53, 1]"] ;
836 -> 858 ;
859 [label="X[32] <= 1.5\ngini = 0.1653\nsamples = 11\nvalue = [10, 1]"] ;
858 -> 859 ;
860 [label="gini = 0.0\nsamples = 8\nvalue = [8, 0]"] ;
859 -> 860 ;
861 [label="X[4] <= 5.5\ngini = 0.4444\nsamples = 3\nvalue = [2, 1]"] ;
859 -> 861 ;
862 [label="gini = 0.0\nsamples = 1\nvalue = [0, 1]"] ;
861 -> 862 ;
863 [label="gini = 0.0\nsamples = 2\nvalue = [2, 0]"] ;
861 -> 863 ;
864 [label="gini = 0.0\nsamples = 43\nvalue = [43, 0]"] ;
858 -> 864 ;
865 [label="gini = 0.0\nsamples = 1\nvalue = [0, 1]"] ;
835 -> 865 ;
866 [label="X[24] <= 2292.165\ngini = 0.0182\nsamples = 3158\nvalue = [3129, 29]"] ;
250 -> 866 ;
867 [label="X[39] <= 19.0\ngini = 0.014\nsamples = 2547\nvalue = [2529, 18]"] ;
866 -> 867 ;
868 [label="X[13] <= 0.5\ngini = 0.0128\nsamples = 2491\nvalue = [2475, 16]"] ;
867 -> 868 ;
869 [label="X[0] <= 89.5\ngini = 0.0121\nsamples = 2471\nvalue = [2456, 15]"] ;
868 -> 869 ;
870 [label="X[24] <= 1011.69\ngini = 0.0108\nsamples = 2401\nvalue = [2388, 13]"] ;
869 -> 870 ;
871 [label="gini = 0.0\nsamples = 666\nvalue = [666, 0]"] ;
870 -> 871 ;
872 [label="X[24] <= 1012.39\ngini = 0.0149\nsamples = 1735\nvalue = [1722, 13]"] ;
870 -> 872 ;
873 [label="X[33] <= 1.0\ngini = 0.4444\nsamples = 3\nvalue = [2, 1]"] ;
872 -> 873 ;
874 [label="gini = 0.0\nsamples = 1\nvalue = [0, 1]"] ;
873 -> 874 ;
875 [label="gini = 0.0\nsamples = 2\nvalue = [2, 0]"] ;
873 -> 875 ;
876 [label="X[19] <= 3.5\ngini = 0.0138\nsamples = 1732\nvalue = [1720, 12]"] ;
872 -> 876 ;
877 [label="X[4] <= 9.5\ngini = 0.0073\nsamples = 1085\nvalue = [1081, 4]"] ;
876 -> 877 ;
878 [label="gini = 0.0\nsamples = 425\nvalue = [425, 0]"] ;
877 -> 878 ;
879 [label="X[4] <= 10.5\ngini = 0.012\nsamples = 660\nvalue = [656, 4]"] ;
877 -> 879 ;
880 [label="X[0] <= 43.5\ngini = 0.043\nsamples = 91\nvalue = [89, 2]"] ;
879 -> 880 ;
881 [label="X[7] <= 2.0\ngini = 0.1653\nsamples = 11\nvalue = [10, 1]"] ;
880 -> 881 ;
882 [label="gini = 0.0\nsamples = 1\nvalue = [0, 1]"] ;
881 -> 882 ;
883 [label="gini = 0.0\nsamples = 10\nvalue = [10, 0]"] ;
881 -> 883 ;
884 [label="X[24] <= 1420.335\ngini = 0.0247\nsamples = 80\nvalue = [79, 1]"] ;
880 -> 884 ;
885 [label="X[24] <= 1418.495\ngini = 0.0713\nsamples = 27\nvalue = [26, 1]"] ;
884 -> 885 ;
886 [label="gini = 0.0\nsamples = 26\nvalue = [26, 0]"] ;
885 -> 886 ;
887 [label="gini = 0.0\nsamples = 1\nvalue = [0, 1]"] ;
885 -> 887 ;
888 [label="gini = 0.0\nsamples = 53\nvalue = [53, 0]"] ;
884 -> 888 ;
889 [label="X[15] <= 0.5\ngini = 0.007\nsamples = 569\nvalue = [567, 2]"] ;
879 -> 889 ;
890 [label="X[33] <= 11.5\ngini = 0.0163\nsamples = 243\nvalue = [241, 2]"] ;
889 -> 890 ;
891 [label="X[0] <= 54.5\ngini = 0.0096\nsamples = 208\nvalue = [207, 1]"] ;
890 -> 891 ;
892 [label="X[0] <= 53.5\ngini = 0.04\nsamples = 49\nvalue = [48, 1]"] ;
891 -> 892 ;
893 [label="gini = 0.0\nsamples = 43\nvalue = [43, 0]"] ;
892 -> 893 ;
894 [label="X[24] <= 1403.6951\ngini = 0.2778\nsamples = 6\nvalue = [5, 1]"] ;
892 -> 894 ;
895 [label="gini = 0.0\nsamples = 4\nvalue = [4, 0]"] ;
894 -> 895 ;
896 [label="X[30] <= 3.0\ngini = 0.5\nsamples = 2\nvalue = [1, 1]"] ;
894 -> 896 ;
897 [label="gini = 0.0\nsamples = 1\nvalue = [0, 1]"] ;
896 -> 897 ;
898 [label="gini = 0.0\nsamples = 1\nvalue = [1, 0]"] ;
896 -> 898 ;
899 [label="gini = 0.0\nsamples = 159\nvalue = [159, 0]"] ;
891 -> 899 ;
900 [label="X[32] <= 1.5\ngini = 0.0555\nsamples = 35\nvalue = [34, 1]"] ;
890 -> 900 ;
901 [label="X[12] <= 0.5\ngini = 0.5\nsamples = 2\nvalue = [1, 1]"] ;
900 -> 901 ;
902 [label="gini = 0.0\nsamples = 1\nvalue = [0, 1]"] ;
901 -> 902 ;
903 [label="gini = 0.0\nsamples = 1\nvalue = [1, 0]"] ;
901 -> 903 ;
904 [label="gini = 0.0\nsamples = 33\nvalue = [33, 0]"] ;
900 -> 904 ;
905 [label="gini = 0.0\nsamples = 326\nvalue = [326, 0]"] ;
889 -> 905 ;
906 [label="X[34] <= 9.5\ngini = 0.0244\nsamples = 647\nvalue = [639, 8]"] ;
876 -> 906 ;
907 [label="X[23] <= 0.5\ngini = 0.0195\nsamples = 610\nvalue = [604, 6]"] ;
906 -> 907 ;
908 [label="X[0] <= 82.5\ngini = 0.142\nsamples = 13\nvalue = [12, 1]"] ;
907 -> 908 ;
909 [label="gini = 0.0\nsamples = 12\nvalue = [12, 0]"] ;
908 -> 909 ;
910 [label="gini = 0.0\nsamples = 1\nvalue = [0, 1]"] ;
908 -> 910 ;
911 [label="X[32] <= 23.5\ngini = 0.0166\nsamples = 597\nvalue = [592, 5]"] ;
907 -> 911 ;
912 [label="X[4] <= 8.5\ngini = 0.0137\nsamples = 580\nvalue = [576, 4]"] ;
911 -> 912 ;
913 [label="X[0] <= 69.5\ngini = 0.032\nsamples = 246\nvalue = [242, 4]"] ;
912 -> 913 ;
914 [label="gini = 0.0\nsamples = 68\nvalue = [68, 0]"] ;
913 -> 914 ;
915 [label="X[0] <= 70.5\ngini = 0.0439\nsamples = 178\nvalue = [174, 4]"] ;
913 -> 915 ;
916 [label="X[24] <= 1770.0601\ngini = 0.1327\nsamples = 14\nvalue = [13, 1]"] ;
915 -> 916 ;
917 [label="gini = 0.0\nsamples = 10\nvalue = [10, 0]"] ;
916 -> 917 ;
918 [label="X[24] <= 1989.51\ngini = 0.375\nsamples = 4\nvalue = [3, 1]"] ;
916 -> 918 ;
919 [label="gini = 0.0\nsamples = 1\nvalue = [0, 1]"] ;
918 -> 919 ;
920 [label="gini = 0.0\nsamples = 3\nvalue = [3, 0]"] ;
918 -> 920 ;
921 [label="X[24] <= 1159.0701\ngini = 0.0359\nsamples = 164\nvalue = [161, 3]"] ;
915 -> 921 ;
922 [label="X[24] <= 1156.2151\ngini = 0.0997\nsamples = 19\nvalue = [18, 1]"] ;
921 -> 922 ;
923 [label="gini = 0.0\nsamples = 18\nvalue = [18, 0]"] ;
922 -> 923 ;
924 [label="gini = 0.0\nsamples = 1\nvalue = [0, 1]"] ;
922 -> 924 ;
925 [label="X[28] <= 1.5\ngini = 0.0272\nsamples = 145\nvalue = [143, 2]"] ;
921 -> 925 ;
926 [label="gini = 0.0\nsamples = 66\nvalue = [66, 0]"] ;
925 -> 926 ;
927 [label="X[24] <= 1622.4351\ngini = 0.0494\nsamples = 79\nvalue = [77, 2]"] ;
925 -> 927 ;
928 [label="gini = 0.0\nsamples = 33\nvalue = [33, 0]"] ;
927 -> 928 ;
929 [label="X[24] <= 1631.965\ngini = 0.0832\nsamples = 46\nvalue = [44, 2]"] ;
927 -> 929 ;
930 [label="gini = 0.0\nsamples = 1\nvalue = [0, 1]"] ;
929 -> 930 ;
931 [label="X[24] <= 1788.9351\ngini = 0.0435\nsamples = 45\nvalue = [44, 1]"] ;
929 -> 931 ;
932 [label="X[24] <= 1780.755\ngini = 0.0907\nsamples = 21\nvalue = [20, 1]"] ;
931 -> 932 ;
933 [label="gini = 0.0\nsamples = 20\nvalue = [20, 0]"] ;
932 -> 933 ;
934 [label="gini = 0.0\nsamples = 1\nvalue = [0, 1]"] ;
932 -> 934 ;
935 [label="gini = 0.0\nsamples = 24\nvalue = [24, 0]"] ;
931 -> 935 ;
936 [label="gini = 0.0\nsamples = 334\nvalue = [334, 0]"] ;
912 -> 936 ;
937 [label="X[33] <= 1.0\ngini = 0.1107\nsamples = 17\nvalue = [16, 1]"] ;
911 -> 937 ;
938 [label="X[19] <= 4.5\ngini = 0.5\nsamples = 2\nvalue = [1, 1]"] ;
937 -> 938 ;
939 [label="gini = 0.0\nsamples = 1\nvalue = [1, 0]"] ;
938 -> 939 ;
940 [label="gini = 0.0\nsamples = 1\nvalue = [0, 1]"] ;
938 -> 940 ;
941 [label="gini = 0.0\nsamples = 15\nvalue = [15, 0]"] ;
937 -> 941 ;
942 [label="X[39] <= 1.5\ngini = 0.1023\nsamples = 37\nvalue = [35, 2]"] ;
906 -> 942 ;
943 [label="X[4] <= 9.0\ngini = 0.0555\nsamples = 35\nvalue = [34, 1]"] ;
942 -> 943 ;
944 [label="X[24] <= 1740.22\ngini = 0.1975\nsamples = 9\nvalue = [8, 1]"] ;
943 -> 944 ;
945 [label="gini = 0.0\nsamples = 7\nvalue = [7, 0]"] ;
944 -> 945 ;
946 [label="X[27] <= 1.0\ngini = 0.5\nsamples = 2\nvalue = [1, 1]"] ;
944 -> 946 ;
947 [label="gini = 0.0\nsamples = 1\nvalue = [0, 1]"] ;
946 -> 947 ;
948 [label="gini = 0.0\nsamples = 1\nvalue = [1, 0]"] ;
946 -> 948 ;
949 [label="gini = 0.0\nsamples = 26\nvalue = [26, 0]"] ;
943 -> 949 ;
950 [label="X[8] <= 1.0\ngini = 0.5\nsamples = 2\nvalue = [1, 1]"] ;
942 -> 950 ;
951 [label="gini = 0.0\nsamples = 1\nvalue = [0, 1]"] ;
950 -> 951 ;
952 [label="gini = 0.0\nsamples = 1\nvalue = [1, 0]"] ;
950 -> 952 ;
953 [label="X[4] <= 15.5\ngini = 0.0555\nsamples = 70\nvalue = [68, 2]"] ;
869 -> 953 ;
954 [label="gini = 0.0\nsamples = 63\nvalue = [63, 0]"] ;
953 -> 954 ;
955 [label="X[24] <= 529.4\ngini = 0.4082\nsamples = 7\nvalue = [5, 2]"] ;
953 -> 955 ;
956 [label="gini = 0.0\nsamples = 1\nvalue = [0, 1]"] ;
955 -> 956 ;
957 [label="X[7] <= 1.0\ngini = 0.2778\nsamples = 6\nvalue = [5, 1]"] ;
955 -> 957 ;
958 [label="gini = 0.0\nsamples = 4\nvalue = [4, 0]"] ;
957 -> 958 ;
959 [label="X[34] <= 8.5\ngini = 0.5\nsamples = 2\nvalue = [1, 1]"] ;
957 -> 959 ;
960 [label="gini = 0.0\nsamples = 1\nvalue = [0, 1]"] ;
959 -> 960 ;
961 [label="gini = 0.0\nsamples = 1\nvalue = [1, 0]"] ;
959 -> 961 ;
962 [label="X[18] <= 15.0\ngini = 0.095\nsamples = 20\nvalue = [19, 1]"] ;
868 -> 962 ;
963 [label="gini = 0.0\nsamples = 19\nvalue = [19, 0]"] ;
962 -> 963 ;
964 [label="gini = 0.0\nsamples = 1\nvalue = [0, 1]"] ;
962 -> 964 ;
965 [label="X[3] <= 12.5\ngini = 0.0689\nsamples = 56\nvalue = [54, 2]"] ;
867 -> 965 ;
966 [label="X[3] <= 6.5\ngini = 0.18\nsamples = 20\nvalue = [18, 2]"] ;
965 -> 966 ;
967 [label="X[4] <= 13.5\ngini = 0.0997\nsamples = 19\nvalue = [18, 1]"] ;
966 -> 967 ;
968 [label="gini = 0.0\nsamples = 12\nvalue = [12, 0]"] ;
967 -> 968 ;
969 [label="X[4] <= 14.5\ngini = 0.2449\nsamples = 7\nvalue = [6, 1]"] ;
967 -> 969 ;
970 [label="X[19] <= 2.5\ngini = 0.5\nsamples = 2\nvalue = [1, 1]"] ;
969 -> 970 ;
971 [label="gini = 0.0\nsamples = 1\nvalue = [0, 1]"] ;
970 -> 971 ;
972 [label="gini = 0.0\nsamples = 1\nvalue = [1, 0]"] ;
970 -> 972 ;
973 [label="gini = 0.0\nsamples = 5\nvalue = [5, 0]"] ;
969 -> 973 ;
974 [label="gini = 0.0\nsamples = 1\nvalue = [0, 1]"] ;
966 -> 974 ;
975 [label="gini = 0.0\nsamples = 36\nvalue = [36, 0]"] ;
965 -> 975 ;
976 [label="X[24] <= 2293.46\ngini = 0.0354\nsamples = 611\nvalue = [600, 11]"] ;
866 -> 976 ;
977 [label="gini = 0.0\nsamples = 1\nvalue = [0, 1]"] ;
976 -> 977 ;
978 [label="X[24] <= 2358.5449\ngini = 0.0322\nsamples = 610\nvalue = [600, 10]"] ;
976 -> 978 ;
979 [label="X[24] <= 2357.4849\ngini = 0.0887\nsamples = 43\nvalue = [41, 2]"] ;
978 -> 979 ;
980 [label="X[4] <= 8.5\ngini = 0.0465\nsamples = 42\nvalue = [41, 1]"] ;
979 -> 980 ;
981 [label="X[7] <= 1.5\ngini = 0.1653\nsamples = 11\nvalue = [10, 1]"] ;
980 -> 981 ;
982 [label="X[24] <= 2328.665\ngini = 0.375\nsamples = 4\nvalue = [3, 1]"] ;
981 -> 982 ;
983 [label="gini = 0.0\nsamples = 3\nvalue = [3, 0]"] ;
982 -> 983 ;
984 [label="gini = 0.0\nsamples = 1\nvalue = [0, 1]"] ;
982 -> 984 ;
985 [label="gini = 0.0\nsamples = 7\nvalue = [7, 0]"] ;
981 -> 985 ;
986 [label="gini = 0.0\nsamples = 31\nvalue = [31, 0]"] ;
980 -> 986 ;
987 [label="gini = 0.0\nsamples = 1\nvalue = [0, 1]"] ;
979 -> 987 ;
988 [label="X[4] <= 10.5\ngini = 0.0278\nsamples = 567\nvalue = [559, 8]"] ;
978 -> 988 ;
989 [label="X[7] <= 0.5\ngini = 0.0067\nsamples = 298\nvalue = [297, 1]"] ;
988 -> 989 ;
990 [label="X[0] <= 73.5\ngini = 0.0213\nsamples = 93\nvalue = [92, 1]"] ;
989 -> 990 ;
991 [label="X[0] <= 72.5\ngini = 0.0644\nsamples = 30\nvalue = [29, 1]"] ;
990 -> 991 ;
992 [label="gini = 0.0\nsamples = 28\nvalue = [28, 0]"] ;
991 -> 992 ;
993 [label="X[24] <= 2726.1899\ngini = 0.5\nsamples = 2\nvalue = [1, 1]"] ;
991 -> 993 ;
994 [label="gini = 0.0\nsamples = 1\nvalue = [1, 0]"] ;
993 -> 994 ;
995 [label="gini = 0.0\nsamples = 1\nvalue = [0, 1]"] ;
993 -> 995 ;
996 [label="gini = 0.0\nsamples = 63\nvalue = [63, 0]"] ;
990 -> 996 ;
997 [label="gini = 0.0\nsamples = 205\nvalue = [205, 0]"] ;
989 -> 997 ;
998 [label="X[4] <= 11.5\ngini = 0.0507\nsamples = 269\nvalue = [262, 7]"] ;
988 -> 998 ;
999 [label="X[35] <= 1.0\ngini = 0.2311\nsamples = 15\nvalue = [13, 2]"] ;
998 -> 999 ;
1000 [label="X[32] <= 9.5\ngini = 0.1327\nsamples = 14\nvalue = [13, 1]"] ;
999 -> 1000 ;
1001 [label="gini = 0.0\nsamples = 13\nvalue = [13, 0]"] ;
1000 -> 1001 ;
1002 [label="gini = 0.0\nsamples = 1\nvalue = [0, 1]"] ;
1000 -> 1002 ;
1003 [label="gini = 0.0\nsamples = 1\nvalue = [0, 1]"] ;
999 -> 1003 ;
1004 [label="X[0] <= 78.5\ngini = 0.0386\nsamples = 254\nvalue = [249, 5]"] ;
998 -> 1004 ;
1005 [label="X[39] <= 9.5\ngini = 0.0192\nsamples = 206\nvalue = [204, 2]"] ;
1004 -> 1005 ;
1006 [label="X[19] <= 1.5\ngini = 0.0104\nsamples = 191\nvalue = [190, 1]"] ;
1005 -> 1006 ;
1007 [label="X[4] <= 15.5\ngini = 0.142\nsamples = 13\nvalue = [12, 1]"] ;
1006 -> 1007 ;
1008 [label="gini = 0.0\nsamples = 10\nvalue = [10, 0]"] ;
1007 -> 1008 ;
1009 [label="X[0] <= 67.0\ngini = 0.4444\nsamples = 3\nvalue = [2, 1]"] ;
1007 -> 1009 ;
1010 [label="gini = 0.0\nsamples = 1\nvalue = [0, 1]"] ;
1009 -> 1010 ;
1011 [label="gini = 0.0\nsamples = 2\nvalue = [2, 0]"] ;
1009 -> 1011 ;
1012 [label="gini = 0.0\nsamples = 178\nvalue = [178, 0]"] ;
1006 -> 1012 ;
1013 [label="X[0] <= 68.5\ngini = 0.1244\nsamples = 15\nvalue = [14, 1]"] ;
1005 -> 1013 ;
1014 [label="gini = 0.0\nsamples = 13\nvalue = [13, 0]"] ;
1013 -> 1014 ;
1015 [label="X[12] <= 0.5\ngini = 0.5\nsamples = 2\nvalue = [1, 1]"] ;
1013 -> 1015 ;
1016 [label="gini = 0.0\nsamples = 1\nvalue = [1, 0]"] ;
1015 -> 1016 ;
1017 [label="gini = 0.0\nsamples = 1\nvalue = [0, 1]"] ;
1015 -> 1017 ;
1018 [label="X[24] <= 4685.5049\ngini = 0.1172\nsamples = 48\nvalue = [45, 3]"] ;
1004 -> 1018 ;
1019 [label="X[0] <= 79.5\ngini = 0.0815\nsamples = 47\nvalue = [45, 2]"] ;
1018 -> 1019 ;
1020 [label="X[10] <= 1.5\ngini = 0.375\nsamples = 4\nvalue = [3, 1]"] ;
1019 -> 1020 ;
1021 [label="gini = 0.0\nsamples = 3\nvalue = [3, 0]"] ;
1020 -> 1021 ;
1022 [label="gini = 0.0\nsamples = 1\nvalue = [0, 1]"] ;
1020 -> 1022 ;
1023 [label="X[24] <= 3225.375\ngini = 0.0454\nsamples = 43\nvalue = [42, 1]"] ;
1019 -> 1023 ;
1024 [label="gini = 0.0\nsamples = 32\nvalue = [32, 0]"] ;
1023 -> 1024 ;
1025 [label="X[24] <= 3375.1899\ngini = 0.1653\nsamples = 11\nvalue = [10, 1]"] ;
1023 -> 1025 ;
1026 [label="gini = 0.0\nsamples = 1\nvalue = [0, 1]"] ;
1025 -> 1026 ;
1027 [label="gini = 0.0\nsamples = 10\nvalue = [10, 0]"] ;
1025 -> 1027 ;
1028 [label="gini = 0.0\nsamples = 1\nvalue = [0, 1]"] ;
1018 -> 1028 ;
1029 [label="X[28] <= 1.0\ngini = 0.5\nsamples = 2\nvalue = [1, 1]"] ;
249 -> 1029 ;
1030 [label="gini = 0.0\nsamples = 1\nvalue = [0, 1]"] ;
1029 -> 1030 ;
1031 [label="gini = 0.0\nsamples = 1\nvalue = [1, 0]"] ;
1029 -> 1031 ;
1032 [label="X[0] <= 48.5\ngini = 0.1236\nsamples = 272\nvalue = [254, 18]"] ;
248 -> 1032 ;
1033 [label="X[16] <= 4792.0\ngini = 0.0294\nsamples = 134\nvalue = [132, 2]"] ;
1032 -> 1033 ;
1034 [label="X[20] <= 3.5\ngini = 0.0153\nsamples = 130\nvalue = [129, 1]"] ;
1033 -> 1034 ;
1035 [label="gini = 0.0\nsamples = 125\nvalue = [125, 0]"] ;
1034 -> 1035 ;
1036 [label="X[2] <= 38.5\ngini = 0.32\nsamples = 5\nvalue = [4, 1]"] ;
1034 -> 1036 ;
1037 [label="gini = 0.0\nsamples = 4\nvalue = [4, 0]"] ;
1036 -> 1037 ;
1038 [label="gini = 0.0\nsamples = 1\nvalue = [0, 1]"] ;
1036 -> 1038 ;
1039 [label="X[16] <= 4973.5\ngini = 0.375\nsamples = 4\nvalue = [3, 1]"] ;
1033 -> 1039 ;
1040 [label="gini = 0.0\nsamples = 1\nvalue = [0, 1]"] ;
1039 -> 1040 ;
1041 [label="gini = 0.0\nsamples = 3\nvalue = [3, 0]"] ;
1039 -> 1041 ;
1042 [label="X[12] <= 0.5\ngini = 0.205\nsamples = 138\nvalue = [122, 16]"] ;
1032 -> 1042 ;
1043 [label="gini = 0.0\nsamples = 53\nvalue = [53, 0]"] ;
1042 -> 1043 ;
1044 [label="X[30] <= 5.5\ngini = 0.3056\nsamples = 85\nvalue = [69, 16]"] ;
1042 -> 1044 ;
1045 [label="X[11] <= 6.5\ngini = 0.2297\nsamples = 68\nvalue = [59, 9]"] ;
1044 -> 1045 ;
1046 [label="X[3] <= 43.5\ngini = 0.2103\nsamples = 67\nvalue = [59, 8]"] ;
1045 -> 1046 ;
1047 [label="X[3] <= 10.0\ngini = 0.1896\nsamples = 66\nvalue = [59, 7]"] ;
1046 -> 1047 ;
1048 [label="X[15] <= 1.5\ngini = 0.375\nsamples = 24\nvalue = [18, 6]"] ;
1047 -> 1048 ;
1049 [label="X[0] <= 50.5\ngini = 0.2449\nsamples = 21\nvalue = [18, 3]"] ;
1048 -> 1049 ;
1050 [label="gini = 0.0\nsamples = 1\nvalue = [0, 1]"] ;
1049 -> 1050 ;
1051 [label="X[10] <= 1.5\ngini = 0.18\nsamples = 20\nvalue = [18, 2]"] ;
1049 -> 1051 ;
1052 [label="X[0] <= 59.0\ngini = 0.0997\nsamples = 19\nvalue = [18, 1]"] ;
1051 -> 1052 ;
1053 [label="X[0] <= 56.5\ngini = 0.32\nsamples = 5\nvalue = [4, 1]"] ;
1052 -> 1053 ;
1054 [label="gini = 0.0\nsamples = 4\nvalue = [4, 0]"] ;
1053 -> 1054 ;
1055 [label="gini = 0.0\nsamples = 1\nvalue = [0, 1]"] ;
1053 -> 1055 ;
1056 [label="gini = 0.0\nsamples = 14\nvalue = [14, 0]"] ;
1052 -> 1056 ;
1057 [label="gini = 0.0\nsamples = 1\nvalue = [0, 1]"] ;
1051 -> 1057 ;
1058 [label="gini = 0.0\nsamples = 3\nvalue = [0, 3]"] ;
1048 -> 1058 ;
1059 [label="X[14] <= 1.5\ngini = 0.0465\nsamples = 42\nvalue = [41, 1]"] ;
1047 -> 1059 ;
1060 [label="gini = 0.0\nsamples = 35\nvalue = [35, 0]"] ;
1059 -> 1060 ;
1061 [label="X[9] <= 7.5\ngini = 0.2449\nsamples = 7\nvalue = [6, 1]"] ;
1059 -> 1061 ;
1062 [label="gini = 0.0\nsamples = 6\nvalue = [6, 0]"] ;
1061 -> 1062 ;
1063 [label="gini = 0.0\nsamples = 1\nvalue = [0, 1]"] ;
1061 -> 1063 ;
1064 [label="gini = 0.0\nsamples = 1\nvalue = [0, 1]"] ;
1046 -> 1064 ;
1065 [label="gini = 0.0\nsamples = 1\nvalue = [0, 1]"] ;
1045 -> 1065 ;
1066 [label="X[36] <= 1.5\ngini = 0.4844\nsamples = 17\nvalue = [10, 7]"] ;
1044 -> 1066 ;
1067 [label="gini = 0.0\nsamples = 3\nvalue = [0, 3]"] ;
1066 -> 1067 ;
1068 [label="X[28] <= 1.5\ngini = 0.4082\nsamples = 14\nvalue = [10, 4]"] ;
1066 -> 1068 ;
1069 [label="gini = 0.0\nsamples = 8\nvalue = [8, 0]"] ;
1068 -> 1069 ;
1070 [label="X[9] <= 1.0\ngini = 0.4444\nsamples = 6\nvalue = [2, 4]"] ;
1068 -> 1070 ;
1071 [label="gini = 0.0\nsamples = 2\nvalue = [2, 0]"] ;
1070 -> 1071 ;
1072 [label="gini = 0.0\nsamples = 4\nvalue = [0, 4]"] ;
1070 -> 1072 ;
1073 [label="X[3] <= 45.5\ngini = 0.0069\nsamples = 15227\nvalue = [15174, 53]"] ;
207 -> 1073 ;
1074 [label="X[8] <= 20.5\ngini = 0.0068\nsamples = 15224\nvalue = [15172, 52]"] ;
1073 -> 1074 ;
1075 [label="X[24] <= 5075.2949\ngini = 0.0061\nsamples = 15027\nvalue = [14981, 46]"] ;
1074 -> 1075 ;
1076 [label="X[12] <= 0.5\ngini = 0.0057\nsamples = 14931\nvalue = [14888, 43]"] ;
1075 -> 1076 ;
1077 [label="X[15] <= 6.5\ngini = 0.0038\nsamples = 12459\nvalue = [12435, 24]"] ;
1076 -> 1077 ;
1078 [label="X[1] <= 6.5\ngini = 0.0037\nsamples = 12448\nvalue = [12425, 23]"] ;
1077 -> 1078 ;
1079 [label="X[0] <= 79.5\ngini = 0.0035\nsamples = 12413\nvalue = [12391, 22]"] ;
1078 -> 1079 ;
1080 [label="X[18] <= 49.5\ngini = 0.0031\nsamples = 12143\nvalue = [12124, 19]"] ;
1079 -> 1080 ;
1081 [label="X[17] <= 782.0\ngini = 0.0028\nsamples = 11980\nvalue = [11963, 17]"] ;
1080 -> 1081 ;
1082 [label="X[14] <= 4.5\ngini = 0.0027\nsamples = 11931\nvalue = [11915, 16]"] ;
1081 -> 1082 ;
1083 [label="X[24] <= 4369.9199\ngini = 0.0025\nsamples = 11881\nvalue = [11866, 15]"] ;
1082 -> 1083 ;
1084 [label="X[24] <= 317.24\ngini = 0.0024\nsamples = 11800\nvalue = [11786, 14]"] ;
1083 -> 1084 ;
1085 [label="X[24] <= 317.06\ngini = 0.0129\nsamples = 307\nvalue = [305, 2]"] ;
1084 -> 1085 ;
1086 [label="X[0] <= 69.5\ngini = 0.0065\nsamples = 305\nvalue = [304, 1]"] ;
1085 -> 1086 ;
1087 [label="gini = 0.0\nsamples = 273\nvalue = [273, 0]"] ;
1086 -> 1087 ;
1088 [label="X[0] <= 70.5\ngini = 0.0605\nsamples = 32\nvalue = [31, 1]"] ;
1086 -> 1088 ;
1089 [label="X[24] <= 287.81\ngini = 0.32\nsamples = 5\nvalue = [4, 1]"] ;
1088 -> 1089 ;
1090 [label="gini = 0.0\nsamples = 3\nvalue = [3, 0]"] ;
1089 -> 1090 ;
1091 [label="X[4] <= 7.5\ngini = 0.5\nsamples = 2\nvalue = [1, 1]"] ;
1089 -> 1091 ;
1092 [label="gini = 0.0\nsamples = 1\nvalue = [0, 1]"] ;
1091 -> 1092 ;
1093 [label="gini = 0.0\nsamples = 1\nvalue = [1, 0]"] ;
1091 -> 1093 ;
1094 [label="gini = 0.0\nsamples = 27\nvalue = [27, 0]"] ;
1088 -> 1094 ;
1095 [label="X[19] <= 3.5\ngini = 0.5\nsamples = 2\nvalue = [1, 1]"] ;
1085 -> 1095 ;
1096 [label="gini = 0.0\nsamples = 1\nvalue = [1, 0]"] ;
1095 -> 1096 ;
1097 [label="gini = 0.0\nsamples = 1\nvalue = [0, 1]"] ;
1095 -> 1097 ;
1098 [label="X[21] <= 19.5\ngini = 0.0021\nsamples = 11493\nvalue = [11481, 12]"] ;
1084 -> 1098 ;
1099 [label="X[0] <= 65.5\ngini = 0.0018\nsamples = 11172\nvalue = [11162, 10]"] ;
1098 -> 1099 ;
1100 [label="X[4] <= 3.5\ngini = 0.0011\nsamples = 9191\nvalue = [9186, 5]"] ;
1099 -> 1100 ;
1101 [label="X[15] <= 0.5\ngini = 0.0003\nsamples = 5818\nvalue = [5817, 1]"] ;
1100 -> 1101 ;
1102 [label="X[24] <= 1833.145\ngini = 0.0009\nsamples = 2293\nvalue = [2292, 1]"] ;
1101 -> 1102 ;
1103 [label="gini = 0.0\nsamples = 1349\nvalue = [1349, 0]"] ;
1102 -> 1103 ;
1104 [label="X[24] <= 1834.6799\ngini = 0.0021\nsamples = 944\nvalue = [943, 1]"] ;
1102 -> 1104 ;
1105 [label="gini = 0.0\nsamples = 1\nvalue = [0, 1]"] ;
1104 -> 1105 ;
1106 [label="gini = 0.0\nsamples = 943\nvalue = [943, 0]"] ;
1104 -> 1106 ;
1107 [label="gini = 0.0\nsamples = 3525\nvalue = [3525, 0]"] ;
1101 -> 1107 ;
1108 [label="X[4] <= 4.5\ngini = 0.0024\nsamples = 3373\nvalue = [3369, 4]"] ;
1100 -> 1108 ;
1109 [label="X[0] <= 44.5\ngini = 0.0088\nsamples = 909\nvalue = [905, 4]"] ;
1108 -> 1109 ;
1110 [label="X[24] <= 869.21\ngini = 0.003\nsamples = 657\nvalue = [656, 1]"] ;
1109 -> 1110 ;
1111 [label="X[24] <= 865.65\ngini = 0.0204\nsamples = 97\nvalue = [96, 1]"] ;
1110 -> 1111 ;
1112 [label="gini = 0.0\nsamples = 96\nvalue = [96, 0]"] ;
1111 -> 1112 ;
1113 [label="gini = 0.0\nsamples = 1\nvalue = [0, 1]"] ;
1111 -> 1113 ;
1114 [label="gini = 0.0\nsamples = 560\nvalue = [560, 0]"] ;
1110 -> 1114 ;
1115 [label="X[9] <= 7.5\ngini = 0.0235\nsamples = 252\nvalue = [249, 3]"] ;
1109 -> 1115 ;
1116 [label="X[24] <= 1523.4399\ngini = 0.0164\nsamples = 242\nvalue = [240, 2]"] ;
1115 -> 1116 ;
1117 [label="X[24] <= 1508.175\ngini = 0.037\nsamples = 106\nvalue = [104, 2]"] ;
1116 -> 1117 ;
1118 [label="X[24] <= 1372.7051\ngini = 0.0189\nsamples = 105\nvalue = [104, 1]"] ;
1117 -> 1118 ;
1119 [label="gini = 0.0\nsamples = 93\nvalue = [93, 0]"] ;
1118 -> 1119 ;
1120 [label="X[24] <= 1384.78\ngini = 0.1528\nsamples = 12\nvalue = [11, 1]"] ;
1118 -> 1120 ;
1121 [label="gini = 0.0\nsamples = 1\nvalue = [0, 1]"] ;
1120 -> 1121 ;
1122 [label="gini = 0.0\nsamples = 11\nvalue = [11, 0]"] ;
1120 -> 1122 ;
1123 [label="gini = 0.0\nsamples = 1\nvalue = [0, 1]"] ;
1117 -> 1123 ;
1124 [label="gini = 0.0\nsamples = 136\nvalue = [136, 0]"] ;
1116 -> 1124 ;
1125 [label="X[10] <= 2.0\ngini = 0.18\nsamples = 10\nvalue = [9, 1]"] ;
1115 -> 1125 ;
1126 [label="gini = 0.0\nsamples = 8\nvalue = [8, 0]"] ;
1125 -> 1126 ;
1127 [label="X[35] <= 0.5\ngini = 0.5\nsamples = 2\nvalue = [1, 1]"] ;
1125 -> 1127 ;
1128 [label="gini = 0.0\nsamples = 1\nvalue = [0, 1]"] ;
1127 -> 1128 ;
1129 [label="gini = 0.0\nsamples = 1\nvalue = [1, 0]"] ;
1127 -> 1129 ;
1130 [label="gini = 0.0\nsamples = 2464\nvalue = [2464, 0]"] ;
1108 -> 1130 ;
1131 [label="X[32] <= 31.0\ngini = 0.005\nsamples = 1981\nvalue = [1976, 5]"] ;
1099 -> 1131 ;
1132 [label="X[0] <= 69.5\ngini = 0.0041\nsamples = 1959\nvalue = [1955, 4]"] ;
1131 -> 1132 ;
1133 [label="X[4] <= 3.0\ngini = 0.0108\nsamples = 737\nvalue = [733, 4]"] ;
1132 -> 1133 ;
1134 [label="X[24] <= 1039.4\ngini = 0.004\nsamples = 495\nvalue = [494, 1]"] ;
1133 -> 1134 ;
1135 [label="X[24] <= 1035.9751\ngini = 0.0217\nsamples = 91\nvalue = [90, 1]"] ;
1134 -> 1135 ;
1136 [label="gini = 0.0\nsamples = 89\nvalue = [89, 0]"] ;
1135 -> 1136 ;
1137 [label="gini = 0.5\nsamples = 2\nvalue = [1, 1]"] ;
1135 -> 1137 ;
1138 [label="gini = 0.0\nsamples = 404\nvalue = [404, 0]"] ;
1134 -> 1138 ;
1139 [label="X[4] <= 5.5\ngini = 0.0245\nsamples = 242\nvalue = [239, 3]"] ;
1133 -> 1139 ;
1140 [label="X[4] <= 4.5\ngini = 0.0981\nsamples = 58\nvalue = [55, 3]"] ;
1139 -> 1140 ;
1141 [label="X[24] <= 2833.415\ngini = 0.0435\nsamples = 45\nvalue = [44, 1]"] ;
1140 -> 1141 ;
1142 [label="gini = 0.0\nsamples = 40\nvalue = [40, 0]"] ;
1141 -> 1142 ;
1143 [label="X[24] <= 2966.5249\ngini = 0.32\nsamples = 5\nvalue = [4, 1]"] ;
1141 -> 1143 ;
1144 [label="gini = 0.0\nsamples = 1\nvalue = [0, 1]"] ;
1143 -> 1144 ;
1145 [label="gini = 0.0\nsamples = 4\nvalue = [4, 0]"] ;
1143 -> 1145 ;
1146 [label="X[27] <= 1.0\ngini = 0.2604\nsamples = 13\nvalue = [11, 2]"] ;
1140 -> 1146 ;
1147 [label="gini = 0.0\nsamples = 8\nvalue = [8, 0]"] ;
1146 -> 1147 ;
1148 [label="X[33] <= 12.5\ngini = 0.48\nsamples = 5\nvalue = [3, 2]"] ;
1146 -> 1148 ;
1149 [label="X[24] <= 1443.2\ngini = 0.5\nsamples = 4\nvalue = [2, 2]"] ;
1148 -> 1149 ;
1150 [label="gini = 0.0\nsamples = 1\nvalue = [0, 1]"] ;
1149 -> 1150 ;
1151 [label="X[10] <= 1.5\ngini = 0.4444\nsamples = 3\nvalue = [2, 1]"] ;
1149 -> 1151 ;
1152 [label="X[24] <= 2265.98\ngini = 0.5\nsamples = 2\nvalue = [1, 1]"] ;
1151 -> 1152 ;
1153 [label="gini = 0.0\nsamples = 1\nvalue = [0, 1]"] ;
1152 -> 1153 ;
1154 [label="gini = 0.0\nsamples = 1\nvalue = [1, 0]"] ;
1152 -> 1154 ;
1155 [label="gini = 0.0\nsamples = 1\nvalue = [1, 0]"] ;
1151 -> 1155 ;
1156 [label="gini = 0.0\nsamples = 1\nvalue = [1, 0]"] ;
1148 -> 1156 ;
1157 [label="gini = 0.0\nsamples = 184\nvalue = [184, 0]"] ;
1139 -> 1157 ;
1158 [label="gini = 0.0\nsamples = 1222\nvalue = [1222, 0]"] ;
1132 -> 1158 ;
1159 [label="X[24] <= 3009.6951\ngini = 0.0868\nsamples = 22\nvalue = [21, 1]"] ;
1131 -> 1159 ;
1160 [label="gini = 0.0\nsamples = 21\nvalue = [21, 0]"] ;
1159 -> 1160 ;
1161 [label="gini = 0.0\nsamples = 1\nvalue = [0, 1]"] ;
1159 -> 1161 ;
1162 [label="X[39] <= 21.5\ngini = 0.0124\nsamples = 321\nvalue = [319, 2]"] ;
1098 -> 1162 ;
1163 [label="X[21] <= 20.5\ngini = 0.0064\nsamples = 310\nvalue = [309, 1]"] ;
1162 -> 1163 ;
1164 [label="X[0] <= 49.5\ngini = 0.0435\nsamples = 45\nvalue = [44, 1]"] ;
1163 -> 1164 ;
1165 [label="gini = 0.0\nsamples = 31\nvalue = [31, 0]"] ;
1164 -> 1165 ;
1166 [label="X[0] <= 50.5\ngini = 0.1327\nsamples = 14\nvalue = [13, 1]"] ;
1164 -> 1166 ;
1167 [label="X[33] <= 4.0\ngini = 0.5\nsamples = 2\nvalue = [1, 1]"] ;
1166 -> 1167 ;
1168 [label="gini = 0.0\nsamples = 1\nvalue = [0, 1]"] ;
1167 -> 1168 ;
1169 [label="gini = 0.0\nsamples = 1\nvalue = [1, 0]"] ;
1167 -> 1169 ;
1170 [label="gini = 0.0\nsamples = 12\nvalue = [12, 0]"] ;
1166 -> 1170 ;
1171 [label="gini = 0.0\nsamples = 265\nvalue = [265, 0]"] ;
1163 -> 1171 ;
1172 [label="X[14] <= 1.5\ngini = 0.1653\nsamples = 11\nvalue = [10, 1]"] ;
1162 -> 1172 ;
1173 [label="gini = 0.0\nsamples = 9\nvalue = [9, 0]"] ;
1172 -> 1173 ;
1174 [label="X[3] <= 9.0\ngini = 0.5\nsamples = 2\nvalue = [1, 1]"] ;
1172 -> 1174 ;
1175 [label="gini = 0.0\nsamples = 1\nvalue = [1, 0]"] ;
1174 -> 1175 ;
1176 [label="gini = 0.0\nsamples = 1\nvalue = [0, 1]"] ;
1174 -> 1176 ;
1177 [label="X[24] <= 4375.25\ngini = 0.0244\nsamples = 81\nvalue = [80, 1]"] ;
1083 -> 1177 ;
1178 [label="gini = 0.0\nsamples = 1\nvalue = [0, 1]"] ;
1177 -> 1178 ;
1179 [label="gini = 0.0\nsamples = 80\nvalue = [80, 0]"] ;
1177 -> 1179 ;
1180 [label="X[9] <= 2.5\ngini = 0.0392\nsamples = 50\nvalue = [49, 1]"] ;
1082 -> 1180 ;
1181 [label="X[0] <= 45.5\ngini = 0.32\nsamples = 5\nvalue = [4, 1]"] ;
1180 -> 1181 ;
1182 [label="gini = 0.0\nsamples = 4\nvalue = [4, 0]"] ;
1181 -> 1182 ;
1183 [label="gini = 0.0\nsamples = 1\nvalue = [0, 1]"] ;
1181 -> 1183 ;
1184 [label="gini = 0.0\nsamples = 45\nvalue = [45, 0]"] ;
1180 -> 1184 ;
1185 [label="X[17] <= 1583.0\ngini = 0.04\nsamples = 49\nvalue = [48, 1]"] ;
1081 -> 1185 ;
1186 [label="gini = 0.0\nsamples = 1\nvalue = [0, 1]"] ;
1185 -> 1186 ;
1187 [label="gini = 0.0\nsamples = 48\nvalue = [48, 0]"] ;
1185 -> 1187 ;
1188 [label="X[30] <= 5.5\ngini = 0.0242\nsamples = 163\nvalue = [161, 2]"] ;
1080 -> 1188 ;
1189 [label="gini = 0.0\nsamples = 150\nvalue = [150, 0]"] ;
1188 -> 1189 ;
1190 [label="X[24] <= 1768.4199\ngini = 0.2604\nsamples = 13\nvalue = [11, 2]"] ;
1188 -> 1190 ;
1191 [label="X[4] <= 2.5\ngini = 0.48\nsamples = 5\nvalue = [3, 2]"] ;
1190 -> 1191 ;
1192 [label="gini = 0.0\nsamples = 2\nvalue = [0, 2]"] ;
1191 -> 1192 ;
1193 [label="gini = 0.0\nsamples = 3\nvalue = [3, 0]"] ;
1191 -> 1193 ;
1194 [label="gini = 0.0\nsamples = 8\nvalue = [8, 0]"] ;
1190 -> 1194 ;
1195 [label="X[24] <= 835.575\ngini = 0.022\nsamples = 270\nvalue = [267, 3]"] ;
1079 -> 1195 ;
1196 [label="X[24] <= 831.685\ngini = 0.1139\nsamples = 33\nvalue = [31, 2]"] ;
1195 -> 1196 ;
1197 [label="X[0] <= 80.5\ngini = 0.0605\nsamples = 32\nvalue = [31, 1]"] ;
1196 -> 1197 ;
1198 [label="X[27] <= 1.0\ngini = 0.2778\nsamples = 6\nvalue = [5, 1]"] ;
1197 -> 1198 ;
1199 [label="gini = 0.0\nsamples = 4\nvalue = [4, 0]"] ;
1198 -> 1199 ;
1200 [label="X[24] <= 399.205\ngini = 0.5\nsamples = 2\nvalue = [1, 1]"] ;
1198 -> 1200 ;
1201 [label="gini = 0.0\nsamples = 1\nvalue = [1, 0]"] ;
1200 -> 1201 ;
1202 [label="gini = 0.0\nsamples = 1\nvalue = [0, 1]"] ;
1200 -> 1202 ;
1203 [label="gini = 0.0\nsamples = 26\nvalue = [26, 0]"] ;
1197 -> 1203 ;
1204 [label="gini = 0.0\nsamples = 1\nvalue = [0, 1]"] ;
1196 -> 1204 ;
1205 [label="X[0] <= 81.5\ngini = 0.0084\nsamples = 237\nvalue = [236, 1]"] ;
1195 -> 1205 ;
1206 [label="X[24] <= 1824.885\ngini = 0.0217\nsamples = 91\nvalue = [90, 1]"] ;
1205 -> 1206 ;
1207 [label="gini = 0.0\nsamples = 61\nvalue = [61, 0]"] ;
1206 -> 1207 ;
1208 [label="X[24] <= 1834.125\ngini = 0.0644\nsamples = 30\nvalue = [29, 1]"] ;
1206 -> 1208 ;
1209 [label="gini = 0.0\nsamples = 1\nvalue = [0, 1]"] ;
1208 -> 1209 ;
1210 [label="gini = 0.0\nsamples = 29\nvalue = [29, 0]"] ;
1208 -> 1210 ;
1211 [label="gini = 0.0\nsamples = 146\nvalue = [146, 0]"] ;
1205 -> 1211 ;
1212 [label="X[6] <= 1.5\ngini = 0.0555\nsamples = 35\nvalue = [34, 1]"] ;
1078 -> 1212 ;
1213 [label="gini = 0.0\nsamples = 34\nvalue = [34, 0]"] ;
1212 -> 1213 ;
1214 [label="gini = 0.0\nsamples = 1\nvalue = [0, 1]"] ;
1212 -> 1214 ;
1215 [label="X[5] <= 615.0\ngini = 0.1653\nsamples = 11\nvalue = [10, 1]"] ;
1077 -> 1215 ;
1216 [label="gini = 0.0\nsamples = 10\nvalue = [10, 0]"] ;
1215 -> 1216 ;
1217 [label="gini = 0.0\nsamples = 1\nvalue = [0, 1]"] ;
1215 -> 1217 ;
1218 [label="X[23] <= 3.5\ngini = 0.0153\nsamples = 2472\nvalue = [2453, 19]"] ;
1076 -> 1218 ;
1219 [label="X[35] <= 2.5\ngini = 0.0015\nsamples = 1374\nvalue = [1373, 1]"] ;
1218 -> 1219 ;
1220 [label="gini = 0.0\nsamples = 1354\nvalue = [1354, 0]"] ;
1219 -> 1220 ;
1221 [label="X[24] <= 628.63\ngini = 0.095\nsamples = 20\nvalue = [19, 1]"] ;
1219 -> 1221 ;
1222 [label="X[34] <= 2.5\ngini = 0.4444\nsamples = 3\nvalue = [2, 1]"] ;
1221 -> 1222 ;
1223 [label="gini = 0.0\nsamples = 1\nvalue = [0, 1]"] ;
1222 -> 1223 ;
1224 [label="gini = 0.0\nsamples = 2\nvalue = [2, 0]"] ;
1222 -> 1224 ;
1225 [label="gini = 0.0\nsamples = 17\nvalue = [17, 0]"] ;
1221 -> 1225 ;
1226 [label="X[2] <= 44.5\ngini = 0.0322\nsamples = 1098\nvalue = [1080, 18]"] ;
1218 -> 1226 ;
1227 [label="X[11] <= 8.0\ngini = 0.0293\nsamples = 1076\nvalue = [1060, 16]"] ;
1226 -> 1227 ;
1228 [label="X[25] <= 1.5\ngini = 0.0277\nsamples = 1069\nvalue = [1054, 15]"] ;
1227 -> 1228 ;
1229 [label="X[11] <= 5.5\ngini = 0.0151\nsamples = 656\nvalue = [651, 5]"] ;
1228 -> 1229 ;
1230 [label="X[4] <= 1.5\ngini = 0.0124\nsamples = 639\nvalue = [635, 4]"] ;
1229 -> 1230 ;
1231 [label="X[11] <= 1.0\ngini = 0.0245\nsamples = 322\nvalue = [318, 4]"] ;
1230 -> 1231 ;
1232 [label="X[19] <= 4.5\ngini = 0.0195\nsamples = 304\nvalue = [301, 3]"] ;
1231 -> 1232 ;
1233 [label="X[0] <= 20.5\ngini = 0.0139\nsamples = 285\nvalue = [283, 2]"] ;
1232 -> 1233 ;
1234 [label="X[36] <= 1.5\ngini = 0.095\nsamples = 20\nvalue = [19, 1]"] ;
1233 -> 1234 ;
1235 [label="gini = 0.0\nsamples = 15\nvalue = [15, 0]"] ;
1234 -> 1235 ;
1236 [label="X[3] <= 24.0\ngini = 0.32\nsamples = 5\nvalue = [4, 1]"] ;
1234 -> 1236 ;
1237 [label="gini = 0.0\nsamples = 4\nvalue = [4, 0]"] ;
1236 -> 1237 ;
1238 [label="gini = 0.0\nsamples = 1\nvalue = [0, 1]"] ;
1236 -> 1238 ;
1239 [label="X[24] <= 3729.5049\ngini = 0.0075\nsamples = 265\nvalue = [264, 1]"] ;
1233 -> 1239 ;
1240 [label="gini = 0.0\nsamples = 244\nvalue = [244, 0]"] ;
1239 -> 1240 ;
1241 [label="X[24] <= 3765.2\ngini = 0.0907\nsamples = 21\nvalue = [20, 1]"] ;
1239 -> 1241 ;
1242 [label="gini = 0.0\nsamples = 1\nvalue = [0, 1]"] ;
1241 -> 1242 ;
1243 [label="gini = 0.0\nsamples = 20\nvalue = [20, 0]"] ;
1241 -> 1243 ;
